<?xml version="1.0"?>
<MethodSetup Method="MLP::MLP">
  <GeneralInfo>
    <Info name="TMVA Release" value="4.1.2 [262402]"/>
    <Info name="ROOT Release" value="5.30/00 [335360]"/>
    <Info name="Creator" value="jtingey"/>
    <Info name="Date" value="Wed Mar  7 15:42:00 2018"/>
    <Info name="Host" value="Linux pc143.hep.ucl.ac.uk 2.6.18-308.11.1.el5 #1 SMP Tue Jul 10 15:47:47 CEST 2012 x86_64 x86_64 x86_64 GNU/Linux"/>
    <Info name="Dir" value="/unix/chips/jtingey/CHIPS/code/WCSimAnalysis/pid/cosmicPid"/>
    <Info name="Training events" value="3945"/>
    <Info name="TrainingTime" value="5.72438440e+01"/>
    <Info name="AnalysisType" value="Classification"/>
  </GeneralInfo>
  <Options>
    <Option name="NCycles" modified="Yes">600</Option>
    <Option name="HiddenLayers" modified="Yes">N+5</Option>
    <Option name="NeuronType" modified="Yes">tanh</Option>
    <Option name="RandomSeed" modified="No">1</Option>
    <Option name="EstimatorType" modified="No">MSE</Option>
    <Option name="NeuronInputType" modified="No">sum</Option>
    <Option name="V" modified="Yes">False</Option>
    <Option name="VerbosityLevel" modified="No">Default</Option>
    <Option name="VarTransform" modified="Yes">N</Option>
    <Option name="H" modified="Yes">True</Option>
    <Option name="CreateMVAPdfs" modified="No">False</Option>
    <Option name="IgnoreNegWeightsInTraining" modified="No">False</Option>
    <Option name="TrainingMethod" modified="No">BP</Option>
    <Option name="LearningRate" modified="No">2.000000e-02</Option>
    <Option name="DecayRate" modified="No">1.000000e-02</Option>
    <Option name="TestRate" modified="Yes">5</Option>
    <Option name="EpochMonitoring" modified="No">False</Option>
    <Option name="Sampling" modified="No">1.000000e+00</Option>
    <Option name="SamplingEpoch" modified="No">1.000000e+00</Option>
    <Option name="SamplingImportance" modified="No">1.000000e+00</Option>
    <Option name="SamplingTraining" modified="No">True</Option>
    <Option name="SamplingTesting" modified="No">False</Option>
    <Option name="ResetStep" modified="No">50</Option>
    <Option name="Tau" modified="No">3.000000e+00</Option>
    <Option name="BPMode" modified="No">sequential</Option>
    <Option name="BatchSize" modified="No">-1</Option>
    <Option name="ConvergenceImprove" modified="No">1.000000e-30</Option>
    <Option name="ConvergenceTests" modified="No">-1</Option>
    <Option name="UseRegulator" modified="No">False</Option>
    <Option name="UpdateLimit" modified="No">10000</Option>
    <Option name="CalculateErrors" modified="No">False</Option>
    <Option name="WeightRange" modified="No">1.000000e+00</Option>
  </Options>
  <Variables NVar="16">
    <Variable VarIndex="0" Expression="fVtxZ" Label="fVtxZ" Title="fVtxZ" Unit="" Internal="fVtxZ" Type="F" Min="-9.50000000e+02" Max="9.50000000e+02"/>
    <Variable VarIndex="1" Expression="fvtxR" Label="fvtxR" Title="fvtxR" Unit="" Internal="fvtxR" Type="F" Min="1.36949520e+01" Max="1.24693213e+03"/>
    <Variable VarIndex="2" Expression="fDirX" Label="fDirX" Title="fDirX" Unit="" Internal="fDirX" Type="F" Min="-9.99832153e-01" Max="9.99989212e-01"/>
    <Variable VarIndex="3" Expression="fDirY" Label="fDirY" Title="fDirY" Unit="" Internal="fDirY" Type="F" Min="-9.97001231e-01" Max="9.95773375e-01"/>
    <Variable VarIndex="4" Expression="fDirZ" Label="fDirZ" Title="fDirZ" Unit="" Internal="fDirZ" Type="F" Min="-9.99999940e-01" Max="9.85570848e-01"/>
    <Variable VarIndex="5" Expression="fFracHitsDownstream" Label="fFracHitsDownstream" Title="fFracHitsDownstream" Unit="" Internal="fFracHitsDownstream" Type="F" Min="0.00000000e+00" Max="1.00000000e+00"/>
    <Variable VarIndex="6" Expression="fFracHitsUpstream" Label="fFracHitsUpstream" Title="fFracHitsUpstream" Unit="" Internal="fFracHitsUpstream" Type="F" Min="0.00000000e+00" Max="1.00000000e+00"/>
    <Variable VarIndex="7" Expression="fNHits" Label="fNHits" Title="fNHits" Unit="" Internal="fNHits" Type="F" Min="5.00000000e+01" Max="1.91000000e+03"/>
    <Variable VarIndex="8" Expression="fEnergy" Label="fEnergy" Title="fEnergy" Unit="" Internal="fEnergy" Type="F" Min="5.00000000e+02" Max="5.00000000e+03"/>
    <Variable VarIndex="9" Expression="fPredictedOverTotalCharge" Label="fPredictedOverTotalCharge" Title="fPredictedOverTotalCharge" Unit="" Internal="fPredictedOverTotalCharge" Type="F" Min="4.14836500e-03" Max="6.77362728e+00"/>
    <Variable VarIndex="10" Expression="fFracTotalQInRing" Label="fFracTotalQInRing" Title="fFracTotalQInRing" Unit="" Internal="fFracTotalQInRing" Type="F" Min="0.00000000e+00" Max="9.95039105e-01"/>
    <Variable VarIndex="11" Expression="fFracTotalQOutsideRing" Label="fFracTotalQOutsideRing" Title="fFracTotalQOutsideRing" Unit="" Internal="fFracTotalQOutsideRing" Type="F" Min="0.00000000e+00" Max="1.00000000e+00"/>
    <Variable VarIndex="12" Expression="fFracTotalQInRingHole" Label="fFracTotalQInRingHole" Title="fFracTotalQInRingHole" Unit="" Internal="fFracTotalQInRingHole" Type="F" Min="0.00000000e+00" Max="1.00000000e+00"/>
    <Variable VarIndex="13" Expression="fFracNHitsInRing" Label="fFracNHitsInRing" Title="fFracNHitsInRing" Unit="" Internal="fFracNHitsInRing" Type="F" Min="0.00000000e+00" Max="9.85714257e-01"/>
    <Variable VarIndex="14" Expression="fFracNHitsOutsideRing" Label="fFracNHitsOutsideRing" Title="fFracNHitsOutsideRing" Unit="" Internal="fFracNHitsOutsideRing" Type="F" Min="0.00000000e+00" Max="1.00000000e+00"/>
    <Variable VarIndex="15" Expression="fFracNHitsInRingHole" Label="fFracNHitsInRingHole" Title="fFracNHitsInRingHole" Unit="" Internal="fFracNHitsInRingHole" Type="F" Min="0.00000000e+00" Max="1.00000000e+00"/>
  </Variables>
  <Spectators NSpec="0"/>
  <Classes NClass="2">
    <Class Name="Signal" Index="0"/>
    <Class Name="Background" Index="1"/>
  </Classes>
  <Transformations NTransformations="1">
    <Transform Name="Normalize">
      <Selection>
        <Input NInputs="16">
          <Input Type="Variable" Label="fVtxZ" Expression="fVtxZ"/>
          <Input Type="Variable" Label="fvtxR" Expression="fvtxR"/>
          <Input Type="Variable" Label="fDirX" Expression="fDirX"/>
          <Input Type="Variable" Label="fDirY" Expression="fDirY"/>
          <Input Type="Variable" Label="fDirZ" Expression="fDirZ"/>
          <Input Type="Variable" Label="fFracHitsDownstream" Expression="fFracHitsDownstream"/>
          <Input Type="Variable" Label="fFracHitsUpstream" Expression="fFracHitsUpstream"/>
          <Input Type="Variable" Label="fNHits" Expression="fNHits"/>
          <Input Type="Variable" Label="fEnergy" Expression="fEnergy"/>
          <Input Type="Variable" Label="fPredictedOverTotalCharge" Expression="fPredictedOverTotalCharge"/>
          <Input Type="Variable" Label="fFracTotalQInRing" Expression="fFracTotalQInRing"/>
          <Input Type="Variable" Label="fFracTotalQOutsideRing" Expression="fFracTotalQOutsideRing"/>
          <Input Type="Variable" Label="fFracTotalQInRingHole" Expression="fFracTotalQInRingHole"/>
          <Input Type="Variable" Label="fFracNHitsInRing" Expression="fFracNHitsInRing"/>
          <Input Type="Variable" Label="fFracNHitsOutsideRing" Expression="fFracNHitsOutsideRing"/>
          <Input Type="Variable" Label="fFracNHitsInRingHole" Expression="fFracNHitsInRingHole"/>
        </Input>
        <Output NOutputs="16">
          <Output Type="Variable" Label="fVtxZ" Expression="fVtxZ"/>
          <Output Type="Variable" Label="fvtxR" Expression="fvtxR"/>
          <Output Type="Variable" Label="fDirX" Expression="fDirX"/>
          <Output Type="Variable" Label="fDirY" Expression="fDirY"/>
          <Output Type="Variable" Label="fDirZ" Expression="fDirZ"/>
          <Output Type="Variable" Label="fFracHitsDownstream" Expression="fFracHitsDownstream"/>
          <Output Type="Variable" Label="fFracHitsUpstream" Expression="fFracHitsUpstream"/>
          <Output Type="Variable" Label="fNHits" Expression="fNHits"/>
          <Output Type="Variable" Label="fEnergy" Expression="fEnergy"/>
          <Output Type="Variable" Label="fPredictedOverTotalCharge" Expression="fPredictedOverTotalCharge"/>
          <Output Type="Variable" Label="fFracTotalQInRing" Expression="fFracTotalQInRing"/>
          <Output Type="Variable" Label="fFracTotalQOutsideRing" Expression="fFracTotalQOutsideRing"/>
          <Output Type="Variable" Label="fFracTotalQInRingHole" Expression="fFracTotalQInRingHole"/>
          <Output Type="Variable" Label="fFracNHitsInRing" Expression="fFracNHitsInRing"/>
          <Output Type="Variable" Label="fFracNHitsOutsideRing" Expression="fFracNHitsOutsideRing"/>
          <Output Type="Variable" Label="fFracNHitsInRingHole" Expression="fFracNHitsInRingHole"/>
        </Output>
      </Selection>
      <Class ClassIndex="0">
        <Ranges>
          <Range Index="0" Min="-9.5000000000000000e+02" Max="9.5000000000000000e+02"/>
          <Range Index="1" Min="1.3694952011108398e+01" Max="1.2469321289062500e+03"/>
          <Range Index="2" Min="-8.2491254806518555e-01" Max="9.9998921155929565e-01"/>
          <Range Index="3" Min="-9.9700123071670532e-01" Max="9.7194832563400269e-01"/>
          <Range Index="4" Min="-9.9684369564056396e-01" Max="9.8557084798812866e-01"/>
          <Range Index="5" Min="0.0000000000000000e+00" Max="1.0000000000000000e+00"/>
          <Range Index="6" Min="0.0000000000000000e+00" Max="1.0000000000000000e+00"/>
          <Range Index="7" Min="5.0000000000000000e+01" Max="1.2630000000000000e+03"/>
          <Range Index="8" Min="5.0000000000000000e+02" Max="4.9999980468750000e+03"/>
          <Range Index="9" Min="4.1483649984002113e-03" Max="6.7736272811889648e+00"/>
          <Range Index="10" Min="0.0000000000000000e+00" Max="9.9503910541534424e-01"/>
          <Range Index="11" Min="0.0000000000000000e+00" Max="1.0000000000000000e+00"/>
          <Range Index="12" Min="0.0000000000000000e+00" Max="1.0000000000000000e+00"/>
          <Range Index="13" Min="0.0000000000000000e+00" Max="9.8571425676345825e-01"/>
          <Range Index="14" Min="0.0000000000000000e+00" Max="1.0000000000000000e+00"/>
          <Range Index="15" Min="0.0000000000000000e+00" Max="1.0000000000000000e+00"/>
        </Ranges>
      </Class>
      <Class ClassIndex="1">
        <Ranges>
          <Range Index="0" Min="-9.4997033691406250e+02" Max="9.5000000000000000e+02"/>
          <Range Index="1" Min="2.4588171005249023e+01" Max="1.2469288330078125e+03"/>
          <Range Index="2" Min="-9.9983215332031250e-01" Max="9.9676436185836792e-01"/>
          <Range Index="3" Min="-9.7172957658767700e-01" Max="9.9577337503433228e-01"/>
          <Range Index="4" Min="-9.9999994039535522e-01" Max="5.3147518634796143e-01"/>
          <Range Index="5" Min="0.0000000000000000e+00" Max="1.0000000000000000e+00"/>
          <Range Index="6" Min="0.0000000000000000e+00" Max="1.0000000000000000e+00"/>
          <Range Index="7" Min="5.0000000000000000e+01" Max="1.9100000000000000e+03"/>
          <Range Index="8" Min="5.0000000000000000e+02" Max="5.0000000000000000e+03"/>
          <Range Index="9" Min="4.3723410926759243e-03" Max="2.7447056770324707e+00"/>
          <Range Index="10" Min="0.0000000000000000e+00" Max="9.7704285383224487e-01"/>
          <Range Index="11" Min="1.0872007347643375e-02" Max="1.0000000000000000e+00"/>
          <Range Index="12" Min="0.0000000000000000e+00" Max="8.5203588008880615e-01"/>
          <Range Index="13" Min="0.0000000000000000e+00" Max="9.7129184007644653e-01"/>
          <Range Index="14" Min="1.5401540324091911e-02" Max="1.0000000000000000e+00"/>
          <Range Index="15" Min="0.0000000000000000e+00" Max="8.3333331346511841e-01"/>
        </Ranges>
      </Class>
      <Class ClassIndex="2">
        <Ranges>
          <Range Index="0" Min="-9.5000000000000000e+02" Max="9.5000000000000000e+02"/>
          <Range Index="1" Min="1.3694952011108398e+01" Max="1.2469321289062500e+03"/>
          <Range Index="2" Min="-9.9983215332031250e-01" Max="9.9998921155929565e-01"/>
          <Range Index="3" Min="-9.9700123071670532e-01" Max="9.9577337503433228e-01"/>
          <Range Index="4" Min="-9.9999994039535522e-01" Max="9.8557084798812866e-01"/>
          <Range Index="5" Min="0.0000000000000000e+00" Max="1.0000000000000000e+00"/>
          <Range Index="6" Min="0.0000000000000000e+00" Max="1.0000000000000000e+00"/>
          <Range Index="7" Min="5.0000000000000000e+01" Max="1.9100000000000000e+03"/>
          <Range Index="8" Min="5.0000000000000000e+02" Max="5.0000000000000000e+03"/>
          <Range Index="9" Min="4.1483649984002113e-03" Max="6.7736272811889648e+00"/>
          <Range Index="10" Min="0.0000000000000000e+00" Max="9.9503910541534424e-01"/>
          <Range Index="11" Min="0.0000000000000000e+00" Max="1.0000000000000000e+00"/>
          <Range Index="12" Min="0.0000000000000000e+00" Max="1.0000000000000000e+00"/>
          <Range Index="13" Min="0.0000000000000000e+00" Max="9.8571425676345825e-01"/>
          <Range Index="14" Min="0.0000000000000000e+00" Max="1.0000000000000000e+00"/>
          <Range Index="15" Min="0.0000000000000000e+00" Max="1.0000000000000000e+00"/>
        </Ranges>
      </Class>
    </Transform>
  </Transformations>
  <MVAPdfs/>
  <Weights>
    <Layout NLayers="3">
      <Layer Index="0" NNeurons="17">
        <Neuron NSynapses="21">
          -4.6626935289200860e-01 2.1312647510854710e+00 8.3419626150462944e-01 1.6856571991676523e+00 -1.3047244728661638e+00 -9.4473803090096586e-01 -3.3494802277105762e-01 1.9308937004388724e+00 -7.6846355594785487e-01 -8.4957383016972932e-01 -1.5913443591171847e+00 -3.8653595676874358e-01 -1.1990711065956654e+00 -5.9406305037375862e-01 -7.8131136090437914e-01 2.3418463324058844e-01 -6.4582921644432356e-01 1.7460117925576470e+00 1.5227256891126278e-01 1.3516903804054758e+00 -2.4255233528744671e-01 
        </Neuron>
        <Neuron NSynapses="21">
          -7.4904667406999903e-01 7.6481675556132878e-01 7.1307296402968201e-01 -1.1206023919406549e+00 -1.4434865530112671e-02 1.4270209300706991e+00 -9.1311148247838381e-01 -1.6016056392989801e+00 2.0672175618611058e-01 -1.9151878239185832e-01 1.6095517952468348e+00 -2.9419342717140506e-01 -3.7499399938114575e-02 1.7844736104093023e-01 1.2568939807896343e-01 4.2360287975881300e-01 1.5821275292239327e+00 -1.0889168626679122e+00 8.2824729691068077e-01 1.1579770902559730e+00 6.8476226098194271e-01 
        </Neuron>
        <Neuron NSynapses="21">
          2.7543706649476611e+00 1.0274113357396792e+00 -1.1166793577722240e+00 -1.7766137867586846e+00 1.2207732298581042e+00 1.3918060665469242e-01 1.1434906214472054e+00 1.3372344092289503e+00 1.5634777872305676e+00 1.0950475855408610e+00 -1.5983115736426123e+00 1.4167354617064007e+00 -1.7285117768191809e+00 -6.8425837722591354e-01 -1.5302020902905127e+00 -3.3575938193061745e+00 1.4856746850225651e+00 4.8001122715471267e-01 -1.8244452907186370e+00 3.7204521663227774e-01 -3.0666498290671218e-01 
        </Neuron>
        <Neuron NSynapses="21">
          -1.8568083836359833e-01 1.7709461371151964e+00 -4.1286582280358236e-01 2.3584689235300337e-02 -1.1670099913188372e+00 7.2815350785801936e-01 -1.1112946438930822e+00 -6.4073919187148864e-01 -1.2552602940942723e+00 9.8156200270661687e-01 1.1149803237747926e+00 1.3669669833112730e+00 -3.7971742527772984e-01 -1.2247301778400925e+00 -1.9401616926285088e+00 1.9166555138238997e-01 3.1843751235862949e-01 1.7305142012539656e+00 5.2198703636969601e-01 9.7583730795223089e-01 -3.9936963824739558e-01 
        </Neuron>
        <Neuron NSynapses="21">
          2.9330295264513384e+00 -3.2560989615356573e-01 1.0834096408967776e-01 -1.0770928200698870e+00 -1.9876299365905901e+00 -1.8463471903715443e+00 -3.4632233703154974e-01 -2.4405239030535075e-01 1.2693618951256544e+00 -1.5743062786024127e+00 -8.4359153402153852e-01 1.5574525767831453e+00 -1.1712981951794215e+00 -1.4474471321825768e+00 -1.8001621044199476e+00 -2.7690748875194449e+00 -1.7579474979341765e+00 -1.9298969279274700e+00 6.6811908828321520e-01 1.6284112003076630e+00 -1.0201821543736727e+00 
        </Neuron>
        <Neuron NSynapses="21">
          8.4556861641307535e-01 -1.1139048145872452e+00 -7.7547215792794877e-01 -2.5399865628960222e-01 9.0480712856740408e-01 -1.3098369574062716e+00 3.9679715323608306e-01 9.3215609730586360e-02 7.1391300340342079e-01 -1.1818593536545052e+00 1.8841599746104238e+00 4.0303510277830995e-01 -5.3100813347074138e-01 1.4696010041242860e-01 -8.9857576372813663e-01 -1.4956894576370126e+00 4.2887437437174818e-02 -4.1942322911060564e-01 1.6545510099990244e+00 7.5018282190225105e-01 6.3985646849012479e-02 
        </Neuron>
        <Neuron NSynapses="21">
          4.5294207097227840e-01 3.3849348314969879e-01 -1.8289935667102446e+00 1.2822317258162239e+00 -4.2366500358985654e-01 -2.2953299681872372e+00 5.2202959106041402e-01 -1.2368806994150123e+00 -1.9860329694413570e-01 9.3838794871670861e-01 1.7203616962989390e+00 -1.9266075109166556e+00 -7.8855783428996254e-02 2.1845752645223664e+00 1.4362450902628507e+00 6.8179861671120223e-02 -1.3591946511601660e+00 -1.3243209428972416e-01 -1.2976931138232388e+00 1.5959612842143702e+00 1.1378178884373535e+00 
        </Neuron>
        <Neuron NSynapses="21">
          -1.2570172626341753e+00 -2.8844963472995500e-01 9.0837539058742547e-02 -1.3249952751854257e+00 2.9519831472470026e-01 1.6962289625504732e+00 -8.0422082657115923e-01 -8.0470741268935653e-01 5.6544548092074820e-01 1.3064350092446539e+00 6.2135807472293469e-01 9.4891603222292065e-01 -1.4231395351323712e+00 1.1362704196111009e+00 5.1084750890863773e-01 1.0291187111237567e+00 5.2617970758549371e-01 7.7309543715405327e-01 -4.8057778505142668e-01 -5.7315837745967102e-01 1.2403452323118178e+00 
        </Neuron>
        <Neuron NSynapses="21">
          -7.3693817880505019e-01 -5.5013553112199542e-01 1.6175770648789982e+00 9.9826681766065883e-01 -7.7035059997766919e-01 1.4415060319139725e+00 1.4685197079143675e+00 -1.9114211939262973e+00 9.4469875571692807e-01 7.6777912489706959e-02 5.4149215276948148e-01 -1.4295627021429962e+00 -1.7139706374867512e+00 8.1536613199106178e-01 1.3960891795374839e+00 1.2032330198688101e-01 -1.6928806463603793e-01 -7.6313789456147285e-01 5.8578279053857274e-01 1.7928414490098603e+00 -1.0271484828542866e-01 
        </Neuron>
        <Neuron NSynapses="21">
          1.9429769233381944e-01 -8.9512648071676326e-01 9.6103148587372422e-01 1.5168231102478835e+00 6.9771446136973791e-01 3.1614174576129250e-01 -1.0792277794956198e+00 -2.2943830754084851e+00 1.2136676266297808e+00 6.8308516025174648e-01 -1.3397789095122650e+00 -7.4799526353575896e-01 4.1723637746739728e-01 -3.9757418898172880e-01 -2.1968261124069448e+00 9.5141906372529617e-01 6.2321555100268378e-01 -6.3617878133511852e-01 -1.5882217016853750e-01 1.6680210828572442e+00 1.1566096203592495e+00 
        </Neuron>
        <Neuron NSynapses="21">
          2.5301792844374432e-01 -2.1041950891369318e-01 -1.7878425507205051e+00 -9.2813342830610590e-01 1.5778488661599663e+00 1.2510001718471360e+00 5.8729401326299668e-01 2.2699907054941612e-01 2.0466190773066346e+00 -1.9259568377181528e+00 -1.3302860340246252e+00 1.2272283169302962e-01 -1.4813568794558605e+00 8.3991208226314840e-01 1.3659163714000093e+00 -6.8386099526527400e-01 8.2459662326290506e-01 -1.4444585557142614e-01 -1.5064769297692311e+00 -1.0561949782821802e+00 1.0872976292445700e+00 
        </Neuron>
        <Neuron NSynapses="21">
          6.6819485839155268e-01 1.2923995680588520e+00 -1.0479040219376112e+00 1.6244956139754894e+00 -1.8627622005824140e+00 1.0387895869957318e+00 -1.1713801694268876e-01 -1.6714817262579387e+00 -1.0268333577045075e+00 -1.3993987180014420e+00 -3.3580776856504307e-01 -2.0687584371280034e+00 -1.2878233429093471e+00 -2.1453727218604999e+00 8.7500525179436336e-02 -6.8141957239398598e-01 -1.7974334128300178e+00 1.3348076845410941e+00 -1.0873311810312334e+00 1.7824825801713268e-01 -9.3069757455650781e-01 
        </Neuron>
        <Neuron NSynapses="21">
          4.5380271594298288e-01 1.8402362543755830e+00 9.8576615551628488e-01 -9.1055400654077501e-01 -1.7223778539729275e+00 -1.1614253688019172e+00 -9.1301200600196875e-01 -1.8271352099434648e+00 1.3274426400890874e-01 2.7643657990659182e-01 1.8774461852250279e+00 -4.4339944915302065e-01 9.2902179887689743e-02 -6.9898774026436217e-01 -1.8431790155212129e+00 5.4569821263939382e-02 1.1625382932554624e+00 -8.2840988880158672e-01 -1.0846869192107242e+00 8.6008296398683826e-01 1.1418176147183496e+00 
        </Neuron>
        <Neuron NSynapses="21">
          6.6801687447832647e-01 -5.9309446890904660e-01 -2.9891303492758825e-01 1.4471204423789499e+00 7.8905050193305348e-01 8.5616846965273519e-01 -5.0238427064984925e-01 2.2918255079803862e-01 -3.2974503538923572e-01 -1.7093395370215601e+00 -5.5229335581173333e-01 -1.5364251996845184e+00 -1.5614335031773903e+00 -1.7007418926405566e+00 1.2309864798613388e+00 -1.7554568480977428e+00 1.7286932945958167e+00 -1.6178832802484888e+00 1.3178333681071028e+00 -1.0830820787558344e+00 4.8552817722854102e-01 
        </Neuron>
        <Neuron NSynapses="21">
          5.5837078170012744e-01 -1.5531032036007617e+00 3.7149113005783135e-01 5.6986713563667846e-01 -1.8969638010755874e+00 -1.1948291399486688e+00 -1.7675636814745368e+00 -9.8142862851342882e-01 2.1338452927018139e+00 -1.2400498477434534e-01 3.3386414098170181e-01 -1.0619762610109917e+00 -8.5637630283619992e-01 -1.9606983374797942e+00 -8.5611499437514915e-01 -7.6130430980351316e-01 7.3749022822919219e-01 -1.3550865858791428e+00 -1.4802244599732572e+00 1.7800872601341309e+00 4.8082092558304662e-01 
        </Neuron>
        <Neuron NSynapses="21">
          1.9749097597680063e-01 1.8849553048820140e+00 -2.0414020429589157e+00 1.3470358352637817e+00 7.1199400018330128e-01 -1.1750931165905782e+00 -9.3325920874276846e-01 -2.0736139066134290e-01 -1.2750731389791830e+00 6.0766962305997663e-01 1.9233805773880286e+00 1.1992693088574800e+00 1.5147162754810706e+00 -1.4870163725010987e+00 1.1832007815851622e+00 -2.9363287175040029e+00 5.7327148664366578e-01 -1.7647271520814183e+00 -1.7967266901338688e+00 -5.8390402585382653e-02 1.1998508134320089e+00 
        </Neuron>
        <Neuron NSynapses="21">
          -2.1635502155671404e-01 8.8259471351494267e-01 3.9238677712574060e-01 -8.2844714643212233e-02 -3.1020877373515154e-01 1.0581840515934765e-01 2.3541990231260406e+00 -1.2206241212197264e+00 1.8752509626483055e-01 -1.7294157148960965e+00 -5.3817838433555742e-01 9.2479640107792110e-02 1.0154043385164264e-01 -5.7515366980915394e-01 1.2146613754543336e+00 1.9854399695286495e+00 8.8680063941077059e-01 -5.6481610609720352e-02 -9.0976744382947339e-01 -1.5067922627971353e+00 -1.8560490503973721e+00 
        </Neuron>
      </Layer>
      <Layer Index="1" NNeurons="22">
        <Neuron NSynapses="1">
          2.8351393254259172e-01 
        </Neuron>
        <Neuron NSynapses="1">
          -2.4607850520680964e-02 
        </Neuron>
        <Neuron NSynapses="1">
          1.6927631030333019e-02 
        </Neuron>
        <Neuron NSynapses="1">
          -2.7401996838043497e-02 
        </Neuron>
        <Neuron NSynapses="1">
          -4.9230941709069463e-02 
        </Neuron>
        <Neuron NSynapses="1">
          1.2355274216139751e-02 
        </Neuron>
        <Neuron NSynapses="1">
          -1.1267751961674952e+00 
        </Neuron>
        <Neuron NSynapses="1">
          3.1213274152860876e-02 
        </Neuron>
        <Neuron NSynapses="1">
          -2.6469411758746023e-02 
        </Neuron>
        <Neuron NSynapses="1">
          -7.3578317184085335e-02 
        </Neuron>
        <Neuron NSynapses="1">
          -1.0619868110455710e-02 
        </Neuron>
        <Neuron NSynapses="1">
          -7.4167591794295634e-03 
        </Neuron>
        <Neuron NSynapses="1">
          1.4810848176840578e-02 
        </Neuron>
        <Neuron NSynapses="1">
          9.5106279515433587e-02 
        </Neuron>
        <Neuron NSynapses="1">
          -7.8052890676334016e-02 
        </Neuron>
        <Neuron NSynapses="1">
          -2.5753483416304701e-01 
        </Neuron>
        <Neuron NSynapses="1">
          1.5473398437690229e-02 
        </Neuron>
        <Neuron NSynapses="1">
          3.5808752204510595e-02 
        </Neuron>
        <Neuron NSynapses="1">
          -6.1308584825747754e-02 
        </Neuron>
        <Neuron NSynapses="1">
          5.3925493898634028e-03 
        </Neuron>
        <Neuron NSynapses="1">
          4.2448374257024363e-01 
        </Neuron>
        <Neuron NSynapses="1">
          1.9890355108698303e+00 
        </Neuron>
      </Layer>
      <Layer Index="2" NNeurons="1">
        <Neuron NSynapses="0"/>
      </Layer>
    </Layout>
  </Weights>
</MethodSetup>
