<?xml version="1.0"?>
<MethodSetup Method="MLP::MLP">
  <GeneralInfo>
    <Info name="TMVA Release" value="4.1.2 [262402]"/>
    <Info name="ROOT Release" value="5.30/00 [335360]"/>
    <Info name="Creator" value="jtingey"/>
    <Info name="Date" value="Mon Mar 12 14:17:39 2018"/>
    <Info name="Host" value="Linux pc143.hep.ucl.ac.uk 2.6.18-308.11.1.el5 #1 SMP Tue Jul 10 15:47:47 CEST 2012 x86_64 x86_64 x86_64 GNU/Linux"/>
    <Info name="Dir" value="/unix/chips/jtingey/CHIPS/code/WCSimAnalysis/pid/cosmicPid"/>
    <Info name="Training events" value="583"/>
    <Info name="TrainingTime" value="9.64523506e+00"/>
    <Info name="AnalysisType" value="Classification"/>
  </GeneralInfo>
  <Options>
    <Option name="NCycles" modified="Yes">600</Option>
    <Option name="HiddenLayers" modified="Yes">N+5</Option>
    <Option name="NeuronType" modified="Yes">tanh</Option>
    <Option name="RandomSeed" modified="No">1</Option>
    <Option name="EstimatorType" modified="No">MSE</Option>
    <Option name="NeuronInputType" modified="No">sum</Option>
    <Option name="V" modified="Yes">False</Option>
    <Option name="VerbosityLevel" modified="No">Default</Option>
    <Option name="VarTransform" modified="Yes">N</Option>
    <Option name="H" modified="Yes">True</Option>
    <Option name="CreateMVAPdfs" modified="No">False</Option>
    <Option name="IgnoreNegWeightsInTraining" modified="No">False</Option>
    <Option name="TrainingMethod" modified="No">BP</Option>
    <Option name="LearningRate" modified="No">2.000000e-02</Option>
    <Option name="DecayRate" modified="No">1.000000e-02</Option>
    <Option name="TestRate" modified="Yes">5</Option>
    <Option name="EpochMonitoring" modified="No">False</Option>
    <Option name="Sampling" modified="No">1.000000e+00</Option>
    <Option name="SamplingEpoch" modified="No">1.000000e+00</Option>
    <Option name="SamplingImportance" modified="No">1.000000e+00</Option>
    <Option name="SamplingTraining" modified="No">True</Option>
    <Option name="SamplingTesting" modified="No">False</Option>
    <Option name="ResetStep" modified="No">50</Option>
    <Option name="Tau" modified="No">3.000000e+00</Option>
    <Option name="BPMode" modified="No">sequential</Option>
    <Option name="BatchSize" modified="No">-1</Option>
    <Option name="ConvergenceImprove" modified="No">1.000000e-30</Option>
    <Option name="ConvergenceTests" modified="No">-1</Option>
    <Option name="UseRegulator" modified="No">False</Option>
    <Option name="UpdateLimit" modified="No">10000</Option>
    <Option name="CalculateErrors" modified="No">False</Option>
    <Option name="WeightRange" modified="No">1.000000e+00</Option>
  </Options>
  <Variables NVar="17">
    <Variable VarIndex="0" Expression="fNVetoHits" Label="fNVetoHits" Title="fNVetoHits" Unit="" Internal="fNVetoHits" Type="F" Min="0.00000000e+00" Max="4.90000000e+01"/>
    <Variable VarIndex="1" Expression="fNHits" Label="fNHits" Title="fNHits" Unit="" Internal="fNHits" Type="F" Min="5.10000000e+01" Max="1.44300000e+03"/>
    <Variable VarIndex="2" Expression="fFracHitsUpstream" Label="fFracHitsUpstream" Title="fFracHitsUpstream" Unit="" Internal="fFracHitsUpstream" Type="F" Min="0.00000000e+00" Max="1.00000000e+00"/>
    <Variable VarIndex="3" Expression="fFracHitsDownstream" Label="fFracHitsDownstream" Title="fFracHitsDownstream" Unit="" Internal="fFracHitsDownstream" Type="F" Min="0.00000000e+00" Max="1.00000000e+00"/>
    <Variable VarIndex="4" Expression="fFracHitsAboveMid" Label="fFracHitsAboveMid" Title="fFracHitsAboveMid" Unit="" Internal="fFracHitsAboveMid" Type="F" Min="0.00000000e+00" Max="1.00000000e+00"/>
    <Variable VarIndex="5" Expression="fFracHitsBelowMid" Label="fFracHitsBelowMid" Title="fFracHitsBelowMid" Unit="" Internal="fFracHitsBelowMid" Type="F" Min="0.00000000e+00" Max="1.00000000e+00"/>
    <Variable VarIndex="6" Expression="fFracNHitsInRing" Label="fFracNHitsInRing" Title="fFracNHitsInRing" Unit="" Internal="fFracNHitsInRing" Type="F" Min="1.56250000e-02" Max="8.36565077e-01"/>
    <Variable VarIndex="7" Expression="fFracNHitsOutsideRing" Label="fFracNHitsOutsideRing" Title="fFracNHitsOutsideRing" Unit="" Internal="fFracNHitsOutsideRing" Type="F" Min="0.00000000e+00" Max="7.82608688e-01"/>
    <Variable VarIndex="8" Expression="fFracNHitsInRingHole" Label="fFracNHitsInRingHole" Title="fFracNHitsInRingHole" Unit="" Internal="fFracNHitsInRingHole" Type="F" Min="1.04477614e-01" Max="9.80392158e-01"/>
    <Variable VarIndex="9" Expression="fEnergy" Label="fEnergy" Title="fEnergy" Unit="" Internal="fEnergy" Type="F" Min="5.50075562e+02" Max="4.50214648e+03"/>
    <Variable VarIndex="10" Expression="fVtxX" Label="fVtxX" Title="fVtxX" Unit="" Internal="fVtxX" Type="F" Min="-1.18902637e+03" Max="1.19478503e+03"/>
    <Variable VarIndex="11" Expression="fVtxY" Label="fVtxY" Title="fVtxY" Unit="" Internal="fVtxY" Type="F" Min="-1.19947253e+03" Max="1.19972705e+03"/>
    <Variable VarIndex="12" Expression="fVtxZ" Label="fVtxZ" Title="fVtxZ" Unit="" Internal="fVtxZ" Type="F" Min="-4.49342773e+02" Max="4.47003754e+02"/>
    <Variable VarIndex="13" Expression="fVtxRho" Label="fVtxRho" Title="fVtxRho" Unit="" Internal="fVtxRho" Type="F" Min="4.01322327e+01" Max="1.19973376e+03"/>
    <Variable VarIndex="14" Expression="fDirX" Label="fDirX" Title="fDirX" Unit="" Internal="fDirX" Type="F" Min="-9.99958515e-01" Max="9.99891937e-01"/>
    <Variable VarIndex="15" Expression="fDirY" Label="fDirY" Title="fDirY" Unit="" Internal="fDirY" Type="F" Min="-9.42760110e-01" Max="9.98311877e-01"/>
    <Variable VarIndex="16" Expression="fDirZ" Label="fDirZ" Title="fDirZ" Unit="" Internal="fDirZ" Type="F" Min="-9.70476091e-01" Max="9.77583766e-01"/>
  </Variables>
  <Spectators NSpec="0"/>
  <Classes NClass="2">
    <Class Name="Signal" Index="0"/>
    <Class Name="Background" Index="1"/>
  </Classes>
  <Transformations NTransformations="1">
    <Transform Name="Normalize">
      <Selection>
        <Input NInputs="17">
          <Input Type="Variable" Label="fNVetoHits" Expression="fNVetoHits"/>
          <Input Type="Variable" Label="fNHits" Expression="fNHits"/>
          <Input Type="Variable" Label="fFracHitsUpstream" Expression="fFracHitsUpstream"/>
          <Input Type="Variable" Label="fFracHitsDownstream" Expression="fFracHitsDownstream"/>
          <Input Type="Variable" Label="fFracHitsAboveMid" Expression="fFracHitsAboveMid"/>
          <Input Type="Variable" Label="fFracHitsBelowMid" Expression="fFracHitsBelowMid"/>
          <Input Type="Variable" Label="fFracNHitsInRing" Expression="fFracNHitsInRing"/>
          <Input Type="Variable" Label="fFracNHitsOutsideRing" Expression="fFracNHitsOutsideRing"/>
          <Input Type="Variable" Label="fFracNHitsInRingHole" Expression="fFracNHitsInRingHole"/>
          <Input Type="Variable" Label="fEnergy" Expression="fEnergy"/>
          <Input Type="Variable" Label="fVtxX" Expression="fVtxX"/>
          <Input Type="Variable" Label="fVtxY" Expression="fVtxY"/>
          <Input Type="Variable" Label="fVtxZ" Expression="fVtxZ"/>
          <Input Type="Variable" Label="fVtxRho" Expression="fVtxRho"/>
          <Input Type="Variable" Label="fDirX" Expression="fDirX"/>
          <Input Type="Variable" Label="fDirY" Expression="fDirY"/>
          <Input Type="Variable" Label="fDirZ" Expression="fDirZ"/>
        </Input>
        <Output NOutputs="17">
          <Output Type="Variable" Label="fNVetoHits" Expression="fNVetoHits"/>
          <Output Type="Variable" Label="fNHits" Expression="fNHits"/>
          <Output Type="Variable" Label="fFracHitsUpstream" Expression="fFracHitsUpstream"/>
          <Output Type="Variable" Label="fFracHitsDownstream" Expression="fFracHitsDownstream"/>
          <Output Type="Variable" Label="fFracHitsAboveMid" Expression="fFracHitsAboveMid"/>
          <Output Type="Variable" Label="fFracHitsBelowMid" Expression="fFracHitsBelowMid"/>
          <Output Type="Variable" Label="fFracNHitsInRing" Expression="fFracNHitsInRing"/>
          <Output Type="Variable" Label="fFracNHitsOutsideRing" Expression="fFracNHitsOutsideRing"/>
          <Output Type="Variable" Label="fFracNHitsInRingHole" Expression="fFracNHitsInRingHole"/>
          <Output Type="Variable" Label="fEnergy" Expression="fEnergy"/>
          <Output Type="Variable" Label="fVtxX" Expression="fVtxX"/>
          <Output Type="Variable" Label="fVtxY" Expression="fVtxY"/>
          <Output Type="Variable" Label="fVtxZ" Expression="fVtxZ"/>
          <Output Type="Variable" Label="fVtxRho" Expression="fVtxRho"/>
          <Output Type="Variable" Label="fDirX" Expression="fDirX"/>
          <Output Type="Variable" Label="fDirY" Expression="fDirY"/>
          <Output Type="Variable" Label="fDirZ" Expression="fDirZ"/>
        </Output>
      </Selection>
      <Class ClassIndex="0">
        <Ranges>
          <Range Index="0" Min="0.0000000000000000e+00" Max="4.9000000000000000e+01"/>
          <Range Index="1" Min="5.1000000000000000e+01" Max="1.4430000000000000e+03"/>
          <Range Index="2" Min="0.0000000000000000e+00" Max="5.5345910787582397e-01"/>
          <Range Index="3" Min="4.4654089212417603e-01" Max="1.0000000000000000e+00"/>
          <Range Index="4" Min="0.0000000000000000e+00" Max="1.0000000000000000e+00"/>
          <Range Index="5" Min="0.0000000000000000e+00" Max="1.0000000000000000e+00"/>
          <Range Index="6" Min="1.9607843831181526e-02" Max="8.3656507730484009e-01"/>
          <Range Index="7" Min="0.0000000000000000e+00" Max="6.4150941371917725e-01"/>
          <Range Index="8" Min="1.1706512421369553e-01" Max="9.8039215803146362e-01"/>
          <Range Index="9" Min="5.5273028564453125e+02" Max="4.5021464843750000e+03"/>
          <Range Index="10" Min="-1.1890263671875000e+03" Max="9.4028009033203125e+02"/>
          <Range Index="11" Min="-1.1994725341796875e+03" Max="1.1997270507812500e+03"/>
          <Range Index="12" Min="-4.4934277343750000e+02" Max="4.4700375366210938e+02"/>
          <Range Index="13" Min="4.0132232666015625e+01" Max="1.1997337646484375e+03"/>
          <Range Index="14" Min="-1.0506439954042435e-02" Max="9.9989193677902222e-01"/>
          <Range Index="15" Min="-9.4276010990142822e-01" Max="9.0455067157745361e-01"/>
          <Range Index="16" Min="-9.7047609090805054e-01" Max="9.7758376598358154e-01"/>
        </Ranges>
      </Class>
      <Class ClassIndex="1">
        <Ranges>
          <Range Index="0" Min="3.0000000000000000e+00" Max="4.9000000000000000e+01"/>
          <Range Index="1" Min="5.7000000000000000e+01" Max="4.1500000000000000e+02"/>
          <Range Index="2" Min="0.0000000000000000e+00" Max="1.0000000000000000e+00"/>
          <Range Index="3" Min="0.0000000000000000e+00" Max="1.0000000000000000e+00"/>
          <Range Index="4" Min="0.0000000000000000e+00" Max="1.0000000000000000e+00"/>
          <Range Index="5" Min="0.0000000000000000e+00" Max="1.0000000000000000e+00"/>
          <Range Index="6" Min="1.5625000000000000e-02" Max="7.8688526153564453e-01"/>
          <Range Index="7" Min="1.0416666977107525e-02" Max="7.8260868787765503e-01"/>
          <Range Index="8" Min="1.0447761416435242e-01" Max="8.2456141710281372e-01"/>
          <Range Index="9" Min="5.5007556152343750e+02" Max="3.4369821777343750e+03"/>
          <Range Index="10" Min="-4.5373559570312500e+02" Max="1.1947850341796875e+03"/>
          <Range Index="11" Min="-1.0084476318359375e+03" Max="9.7782446289062500e+02"/>
          <Range Index="12" Min="-4.4912854003906250e+02" Max="4.4542575073242188e+02"/>
          <Range Index="13" Min="4.1667318725585938e+02" Max="1.1996683349609375e+03"/>
          <Range Index="14" Min="-9.9995851516723633e-01" Max="-5.7964220643043518e-02"/>
          <Range Index="15" Min="-8.3285188674926758e-01" Max="9.9831187725067139e-01"/>
          <Range Index="16" Min="-9.6337217092514038e-01" Max="9.3817377090454102e-01"/>
        </Ranges>
      </Class>
      <Class ClassIndex="2">
        <Ranges>
          <Range Index="0" Min="0.0000000000000000e+00" Max="4.9000000000000000e+01"/>
          <Range Index="1" Min="5.1000000000000000e+01" Max="1.4430000000000000e+03"/>
          <Range Index="2" Min="0.0000000000000000e+00" Max="1.0000000000000000e+00"/>
          <Range Index="3" Min="0.0000000000000000e+00" Max="1.0000000000000000e+00"/>
          <Range Index="4" Min="0.0000000000000000e+00" Max="1.0000000000000000e+00"/>
          <Range Index="5" Min="0.0000000000000000e+00" Max="1.0000000000000000e+00"/>
          <Range Index="6" Min="1.5625000000000000e-02" Max="8.3656507730484009e-01"/>
          <Range Index="7" Min="0.0000000000000000e+00" Max="7.8260868787765503e-01"/>
          <Range Index="8" Min="1.0447761416435242e-01" Max="9.8039215803146362e-01"/>
          <Range Index="9" Min="5.5007556152343750e+02" Max="4.5021464843750000e+03"/>
          <Range Index="10" Min="-1.1890263671875000e+03" Max="1.1947850341796875e+03"/>
          <Range Index="11" Min="-1.1994725341796875e+03" Max="1.1997270507812500e+03"/>
          <Range Index="12" Min="-4.4934277343750000e+02" Max="4.4700375366210938e+02"/>
          <Range Index="13" Min="4.0132232666015625e+01" Max="1.1997337646484375e+03"/>
          <Range Index="14" Min="-9.9995851516723633e-01" Max="9.9989193677902222e-01"/>
          <Range Index="15" Min="-9.4276010990142822e-01" Max="9.9831187725067139e-01"/>
          <Range Index="16" Min="-9.7047609090805054e-01" Max="9.7758376598358154e-01"/>
        </Ranges>
      </Class>
    </Transform>
  </Transformations>
  <MVAPdfs/>
  <Weights>
    <Layout NLayers="3">
      <Layer Index="0" NNeurons="18">
        <Neuron NSynapses="22">
          -2.7507903514590377e-02 2.1528971133337675e+00 1.6284753707996913e+00 1.7294948978597984e+00 -1.8781604348602474e+00 -1.2957312843630431e+00 -8.4479773812226122e-01 1.9858600685033683e+00 -1.2592202311044267e+00 -1.4521466595175154e+00 -1.5727302669766456e+00 -3.0648102490878926e-01 -1.3827289878629512e+00 -6.8656543023210137e-01 -6.4257704733125121e-01 7.1484556056278414e-01 -4.5671860493602001e-01 1.5630928773660340e+00 2.0535112276489451e-01 1.2331630682134465e+00 -1.0086540830026693e-01 -6.1059287211511881e-01 
        </Neuron>
        <Neuron NSynapses="22">
          7.5549915662584355e-01 2.9644016896735209e-01 -7.9271982792363682e-01 -2.5813191740661379e-01 1.7690572952228507e+00 -1.1020498705418318e+00 -1.7316796032819299e+00 1.1444039059794056e-02 6.9118686404617879e-01 1.4108829164970298e+00 -3.1636149861352930e-01 1.5691123811984439e-01 1.3623795395028843e-01 -5.7213208574578689e-01 -1.4514183683326676e+00 1.8542689692645056e+00 -1.2275485637581016e+00 8.2142755644268151e-01 1.2356743304732822e+00 8.5292551068105238e-01 1.9322658426869699e+00 1.2528937158706435e+00 
        </Neuron>
        <Neuron NSynapses="22">
          -6.5935761688350880e-01 -1.6424139323417573e+00 1.2592277651857509e+00 8.3284586615649359e-02 1.3747064524501955e+00 1.5342454415032147e+00 1.5109014670169993e+00 1.2842686300365385e+00 -1.2551303035902148e+00 1.2001996981957053e+00 -1.8274417302682375e+00 -7.0635673496022433e-01 -1.3533220201903702e+00 -1.8664863757584682e+00 1.4977987895262577e+00 9.0387063404737233e-01 -1.6698734386680172e+00 9.7309740870054673e-01 -2.9358182624278917e-01 5.5018028721121359e-01 2.1976063000362749e+00 -4.5364609367526215e-01 
        </Neuron>
        <Neuron NSynapses="22">
          4.5715514920236719e-02 -1.1961792508354938e+00 2.7757113661738381e-01 -8.5215581655347261e-01 -6.0708732105227059e-01 -1.5056839196030312e+00 8.1352888755384356e-01 1.1655769040220787e+00 9.3380983482458235e-01 -2.3163085826612351e-01 -1.9431860155191705e+00 -2.0647581125903982e+00 1.0332209592843467e+00 5.9957909639796225e-01 1.9702155776814736e+00 4.2078442390472293e-01 1.0559233966152659e+00 -1.4068541468460156e+00 -9.0021172273810701e-01 -7.9025918215944291e-02 7.9106915723006466e-01 -1.0107041962782541e+00 
        </Neuron>
        <Neuron NSynapses="22">
          -1.6565909224959066e+00 -1.7279006821468093e+00 4.4915096362059370e-02 -1.2320521546648222e-01 1.5472564567447236e+00 -1.6573207796154292e+00 -7.2253669300924639e-01 1.6294706488190365e+00 -3.6552855389998112e-01 -1.5545014356256517e+00 -1.4567134947322427e+00 4.4437564807848712e-01 -1.9267153298869351e+00 -1.5792407827505570e+00 7.0480903192395117e-01 1.4999517398119580e+00 -1.1350551061512544e+00 1.6495957601870748e+00 -9.2669015128255583e-01 -8.1738175764500776e-01 1.9065357785024198e-01 3.6583959433011309e-01 
        </Neuron>
        <Neuron NSynapses="22">
          -1.7170548523467095e+00 2.8500549920101043e-01 4.3129456310469119e-02 4.5591258416151997e-01 -1.3259601383162365e+00 1.8681524640777425e+00 2.5421541464395675e-01 -9.7207404902790340e-01 3.1566337706159303e-01 -1.0434750067492691e+00 -1.6138344992905596e+00 -2.1138414157964286e-01 -3.3959289372490414e-01 1.7134853448711747e+00 7.8813372385582037e-01 1.3973197118751002e-01 -3.6171538547591331e-01 1.5459975548847571e-01 -1.8113093838489418e+00 1.0750426282821826e+00 -8.0775302707393928e-02 -1.8469002000637700e+00 
        </Neuron>
        <Neuron NSynapses="22">
          6.0700716585008097e-01 -1.3944765779914778e+00 -1.9838797698739061e-01 1.1508084258411830e+00 1.9936758791164688e+00 -2.0151549007747738e+00 3.6083557674111361e-01 1.5160018785895066e+00 1.4766004142011075e+00 1.2889441747792990e-01 -1.4495914896773541e+00 -4.5387303580700639e-01 -1.4658623893121110e+00 1.4409783105737564e+00 1.2205903523987383e+00 -4.4792259957929720e-01 -3.6095537163245822e-01 -1.9153338201149522e-01 -1.3155907076885298e+00 6.6203367732239593e-01 1.1767473514074691e+00 -4.9279752650584502e-01 
        </Neuron>
        <Neuron NSynapses="22">
          -5.9277725465638564e-01 2.3779813147761650e-01 1.4589269325151353e+00 5.5987216959062225e-01 6.7015914115672037e-01 -1.3705086229754737e+00 1.5745687447335894e+00 7.2316954051671756e-01 5.6541487170150939e-01 5.2390332921906779e-01 1.0066520667462828e+00 -1.7491792611285659e-01 -6.1007493743120456e-01 1.0040089290206240e+00 -9.2635060698216143e-01 -4.0414470451804535e-01 1.5325130490272549e+00 1.4449858556801707e+00 -2.9598887062369483e-01 1.4616182913450413e+00 2.4185608134150254e+00 -2.0342377690149411e+00 
        </Neuron>
        <Neuron NSynapses="22">
          6.9097754312464288e-01 2.9921891802400541e-02 9.3518175132067904e-01 -1.6921212608385368e+00 -1.6397288650620128e+00 1.1869425168931427e+00 1.9091107575782580e+00 -1.7594106123164708e+00 -2.9208814916325383e-02 -7.2654099856167287e-01 3.1943813643043895e-01 2.3265121474728701e+00 -4.3676115560608714e-01 -6.1166107995418728e-01 -1.0765327082132401e+00 1.0653970899490350e+00 1.5563166472284300e+00 1.4477011374123281e+00 3.4183526951304638e-01 -8.6567159732594756e-01 -1.1542347175092158e+00 1.0811656454462928e+00 
        </Neuron>
        <Neuron NSynapses="22">
          5.0856794058696952e-01 -1.1954738693178721e+00 -3.0753143348585654e-01 2.9454408509181523e-01 3.1605451661151046e-01 -1.9297963707634740e+00 1.6298460733792051e+00 6.9520592334561071e-01 -6.0944669300697496e-01 -3.7847645078713876e-01 1.6703922034331340e+00 1.3602360299946130e+00 3.9417462304819600e-01 -4.1519998427672705e-01 -1.9517902956463831e+00 -8.1001683879275244e-01 1.6882164194495677e+00 1.1308608345843996e+00 7.9364809066217012e-01 1.7619342148772821e-01 1.9045338292390610e+00 -1.6830134720634706e+00 
        </Neuron>
        <Neuron NSynapses="22">
          -1.3213940427148143e+00 -1.7451576586451575e-01 -1.1677624526228354e+00 9.6149117624740532e-01 1.3636086126415177e+00 -1.2241953781634878e+00 8.5889414804138797e-01 -1.8907418765507403e-01 -2.2968722722226409e+00 -1.2819215370286541e+00 1.0449834894261338e+00 7.5523231968414750e-01 9.6800299154687608e-01 -1.2883793225426807e+00 1.6586613858585222e+00 -1.8797007814768800e+00 8.3123920377836125e-01 4.2963568639350913e-01 -1.4538815558131586e+00 -1.3355334804762702e+00 -1.6876779155547263e+00 -3.9390412320102669e-01 
        </Neuron>
        <Neuron NSynapses="22">
          -1.8412823975595203e+00 -1.4252519365289327e+00 -1.6141328964712223e+00 3.7454299501966590e-03 -9.3701052865890133e-01 -1.6313187382369958e+00 1.3925529740980653e+00 -8.4953816298465179e-01 1.6793651158875220e-01 -1.3609028760074249e+00 2.5114745262598154e-01 1.2006029184302693e+00 1.3246585442495333e+00 -9.6187662650614170e-01 -1.4997389112775934e+00 -9.4188464060357280e-01 -8.7577053540827654e-01 -1.3094194690050736e+00 3.4685272166472636e-01 2.8131299154477823e-01 1.4209590823681979e+00 -2.7627347147924514e-01 
        </Neuron>
        <Neuron NSynapses="22">
          3.4814500421137418e-01 -4.4745335559416949e-01 -1.5196418696768905e+00 1.2093955560653238e+00 1.1542716187797641e+00 -7.6347656323664315e-01 -9.8484801282189893e-01 8.1270133168038450e-01 1.2039736990573284e+00 5.9967021545170945e-02 -4.2913535651415435e-01 -4.3428159381453968e-01 1.3955682070421331e+00 9.8388560990414931e-01 9.6778795395239459e-01 -4.1636692278814119e-01 2.7215642117265437e-01 -7.9054920707012655e-01 -1.4212929255024362e+00 -5.2358697683318289e-01 -1.1838298378958243e+00 -1.2223236813817562e+00 
        </Neuron>
        <Neuron NSynapses="22">
          -1.5703152460238337e+00 1.7463638963157311e+00 -1.9336102350984496e+00 1.6842033616460013e+00 -1.5881255482365564e+00 1.1291496089230821e+00 -1.0607961766840159e+00 6.4944854063535862e-01 2.1823204459748596e-01 -1.5409414119904099e+00 2.6341176143714895e-01 -5.5837839871639795e-02 -1.8650122850019517e+00 -1.3017321222082308e+00 -1.6720561231496285e+00 -9.3379315126640872e-01 1.8155277193116972e+00 -1.0066328728259795e+00 2.0686032608765806e-01 -8.8350663296141108e-01 -1.4933910053877328e+00 -1.7722682334580708e+00 
        </Neuron>
        <Neuron NSynapses="22">
          -1.1124026576028672e+00 -1.4134551596027698e+00 3.3193150390433035e-01 -1.3575391441504101e+00 -7.8976464693294535e-01 1.6221985912182060e+00 3.1600333975057743e-01 -4.4107547428129018e-01 2.2093180023649701e+00 -1.4286362436444009e+00 1.3461865867335974e+00 2.4663428099704451e-01 -9.4672202185465149e-01 -5.7447479907988885e-01 1.7612580539831089e-02 -1.2107858047690181e+00 5.4953890000336192e-01 1.2296742415423771e+00 1.2567289055119948e+00 1.7107852882401677e+00 -1.6597216082421753e+00 1.0962397011253548e+00 
        </Neuron>
        <Neuron NSynapses="22">
          -1.8276147767474469e+00 5.5709146356773320e-01 -1.7350188067768151e+00 -1.8358655766710599e+00 3.1212496019762385e-02 1.2205324253434844e+00 3.5744473218891210e-01 1.0631416840445029e+00 2.6191839013086482e-01 -3.3609094906220183e-01 -7.5586864056843539e-01 -1.0085937020128248e-01 1.9624833102362085e+00 -1.4394807149666120e+00 3.1805227759224719e-01 -1.3051324946958243e+00 -4.5023705369875949e-01 1.0575546496275735e-01 2.0858566540589804e-01 -1.1648399666986373e+00 9.0561796079772161e-01 1.6864629919953191e+00 
        </Neuron>
        <Neuron NSynapses="22">
          5.7855528192736871e-01 -2.0368819924261045e-01 -9.2345730445695418e-01 -1.4560080307201118e+00 -1.7779436124373145e+00 1.0702292643194105e+00 -4.6177979586672879e-01 -1.1321516831018459e+00 9.5806097355348085e-01 -1.4709598983645435e+00 -1.1392884978923927e+00 -1.1738392643862554e+00 1.0606159618079034e+00 -1.1873479287151707e+00 -1.7204889957312286e+00 -6.4146006769712849e-01 -9.6117981160559496e-01 -1.4586320264561201e+00 1.1841294599885408e+00 -1.4268762050367749e+00 -1.3098654545740396e+00 1.6708540125559541e+00 
        </Neuron>
        <Neuron NSynapses="22">
          5.4993058176040188e-01 2.5890856356170455e-01 -6.4835729378184492e-01 1.3552908646626771e+00 1.8280657490602916e+00 4.6370561798779841e-01 -1.1437313571017997e+00 -6.2308248937031896e-01 -1.8650794651176714e+00 1.2039550739632718e+00 9.2939180752863260e-01 -7.5435937008590070e-01 1.2054317056788564e+00 1.3052520514893380e+00 1.6780838286925901e+00 -1.5872564458354115e+00 1.7978641941853122e+00 2.3050516955961531e-01 -2.0186843900801099e+00 -1.9715288895343744e-01 -2.0777413333671682e+00 9.4323202627768976e-01 
        </Neuron>
      </Layer>
      <Layer Index="1" NNeurons="23">
        <Neuron NSynapses="1">
          5.5429095668198302e-03 
        </Neuron>
        <Neuron NSynapses="1">
          7.1059702772303572e-03 
        </Neuron>
        <Neuron NSynapses="1">
          5.6504714746726997e-02 
        </Neuron>
        <Neuron NSynapses="1">
          6.5617506388120051e-04 
        </Neuron>
        <Neuron NSynapses="1">
          5.3296790548119644e-03 
        </Neuron>
        <Neuron NSynapses="1">
          2.6260053269961570e-03 
        </Neuron>
        <Neuron NSynapses="1">
          1.8132348319183152e-02 
        </Neuron>
        <Neuron NSynapses="1">
          -7.6267085547870547e-04 
        </Neuron>
        <Neuron NSynapses="1">
          5.2672471104103769e-01 
        </Neuron>
        <Neuron NSynapses="1">
          -2.2367478779740705e-03 
        </Neuron>
        <Neuron NSynapses="1">
          -7.7994624049528092e-03 
        </Neuron>
        <Neuron NSynapses="1">
          1.1545851675829713e+00 
        </Neuron>
        <Neuron NSynapses="1">
          2.1512922301620478e-03 
        </Neuron>
        <Neuron NSynapses="1">
          -7.7405932159850524e-03 
        </Neuron>
        <Neuron NSynapses="1">
          4.4952249771997490e-03 
        </Neuron>
        <Neuron NSynapses="1">
          -5.5657321015857575e-01 
        </Neuron>
        <Neuron NSynapses="1">
          -1.7523615669799830e-02 
        </Neuron>
        <Neuron NSynapses="1">
          -2.0813544037424639e-01 
        </Neuron>
        <Neuron NSynapses="1">
          5.4082200809938922e-03 
        </Neuron>
        <Neuron NSynapses="1">
          -2.2310506083938141e-03 
        </Neuron>
        <Neuron NSynapses="1">
          1.1592208565324243e-01 
        </Neuron>
        <Neuron NSynapses="1">
          -8.9441660745245202e-03 
        </Neuron>
        <Neuron NSynapses="1">
          1.0894107648586913e+00 
        </Neuron>
      </Layer>
      <Layer Index="2" NNeurons="1">
        <Neuron NSynapses="0"/>
      </Layer>
    </Layout>
  </Weights>
</MethodSetup>
