<?xml version="1.0"?>
<MethodSetup Method="MLP::MLP">
  <GeneralInfo>
    <Info name="TMVA Release" value="4.2.0 [262656]"/>
    <Info name="ROOT Release" value="5.34/36 [336420]"/>
    <Info name="Creator" value="ajperch"/>
    <Info name="Date" value="Mon Jun 27 11:21:30 2016"/>
    <Info name="Host" value="Linux buildvm-19.phx2.fedoraproject.org 4.3.5-300.fc23.x86_64 #1 SMP Mon Feb 1 03:18:41 UTC 2016 x86_64 x86_64 x86_64 GNU/Linux"/>
    <Info name="Dir" value="/unix/fnu/ajperch/CHIPS/SpeedupFitter/WCSimAnalysis/tmva"/>
    <Info name="Training events" value="3473"/>
    <Info name="TrainingTime" value="4.02884080e+01"/>
    <Info name="AnalysisType" value="Classification"/>
  </GeneralInfo>
  <Options>
    <Option name="NCycles" modified="Yes">600</Option>
    <Option name="HiddenLayers" modified="Yes">N+5</Option>
    <Option name="NeuronType" modified="Yes">tanh</Option>
    <Option name="RandomSeed" modified="No">1</Option>
    <Option name="EstimatorType" modified="No">MSE</Option>
    <Option name="NeuronInputType" modified="No">sum</Option>
    <Option name="V" modified="Yes">False</Option>
    <Option name="VerbosityLevel" modified="No">Default</Option>
    <Option name="VarTransform" modified="Yes">N</Option>
    <Option name="H" modified="Yes">True</Option>
    <Option name="CreateMVAPdfs" modified="No">False</Option>
    <Option name="IgnoreNegWeightsInTraining" modified="No">False</Option>
    <Option name="TrainingMethod" modified="No">BP</Option>
    <Option name="LearningRate" modified="No">2.000000e-02</Option>
    <Option name="DecayRate" modified="No">1.000000e-02</Option>
    <Option name="TestRate" modified="Yes">5</Option>
    <Option name="EpochMonitoring" modified="No">False</Option>
    <Option name="Sampling" modified="No">1.000000e+00</Option>
    <Option name="SamplingEpoch" modified="No">1.000000e+00</Option>
    <Option name="SamplingImportance" modified="No">1.000000e+00</Option>
    <Option name="SamplingTraining" modified="No">True</Option>
    <Option name="SamplingTesting" modified="No">False</Option>
    <Option name="ResetStep" modified="No">50</Option>
    <Option name="Tau" modified="No">3.000000e+00</Option>
    <Option name="BPMode" modified="No">sequential</Option>
    <Option name="BatchSize" modified="No">-1</Option>
    <Option name="ConvergenceImprove" modified="No">1.000000e-30</Option>
    <Option name="ConvergenceTests" modified="No">-1</Option>
    <Option name="UseRegulator" modified="No">False</Option>
    <Option name="UpdateLimit" modified="No">10000</Option>
    <Option name="CalculateErrors" modified="No">False</Option>
    <Option name="WeightRange" modified="No">1.000000e+00</Option>
  </Options>
  <Variables NVar="11">
    <Variable VarIndex="0" Expression="deltaCharge2LnL" Label="deltaCharge2LnL" Title="deltaCharge2LnL" Unit="" Internal="deltaCharge2LnL" Type="F" Min="-1.67169316e+04" Max="1.98666943e+03"/>
    <Variable VarIndex="1" Expression="deltaTime2LnL" Label="deltaTime2LnL" Title="deltaTime2LnL" Unit="" Internal="deltaTime2LnL" Type="F" Min="-1.08922510e+04" Max="7.77299316e+03"/>
    <Variable VarIndex="2" Expression="fracQOutsideRing_mu" Label="fracQOutsideRing_mu" Title="fracQOutsideRing_mu" Unit="" Internal="fracQOutsideRing_mu" Type="F" Min="0.00000000e+00" Max="1.00000000e+00"/>
    <Variable VarIndex="3" Expression="fracPredQOutsideRing_mu" Label="fracPredQOutsideRing_mu" Title="fracPredQOutsideRing_mu" Unit="" Internal="fracPredQOutsideRing_mu" Type="F" Min="8.03388804e-02" Max="1.00000000e+00"/>
    <Variable VarIndex="4" Expression="predictedChargeOverTotalCharge_mu" Label="predictedChargeOverTotalCharge_mu" Title="predictedChargeOverTotalCharge_mu" Unit="" Internal="predictedChargeOverTotalCharge_mu" Type="F" Min="2.44273379e-01" Max="2.76878967e+01"/>
    <Variable VarIndex="5" Expression="predictedChargeOverTotalCharge_el" Label="predictedChargeOverTotalCharge_el" Title="predictedChargeOverTotalCharge_el" Unit="" Internal="predictedChargeOverTotalCharge_el" Type="F" Min="-9.99900024e+02" Max="2.15064907e+01"/>
    <Variable VarIndex="6" Expression="nHits" Label="nHits" Title="nHits" Unit="" Internal="nHits" Type="F" Min="5.10000000e+01" Max="8.30100000e+03"/>
    <Variable VarIndex="7" Expression="recoE_el/totalQ" Label="recoE_el/totalQ" Title="recoE_el/totalQ" Unit="" Internal="recoE_el_D_totalQ" Type="F" Min="6.10388443e-02" Max="2.96625462e+01"/>
    <Variable VarIndex="8" Expression="recoE_mu/totalQ" Label="recoE_mu/totalQ" Title="recoE_mu/totalQ" Unit="" Internal="recoE_mu_D_totalQ" Type="F" Min="6.10388443e-02" Max="1.09381781e+01"/>
    <Variable VarIndex="9" Expression="charge2LnL_el/nHits" Label="chargeLikelihoodRatio_el" Title="chargeLikelihoodRatio_el" Unit="" Internal="chargeLikelihoodRatio_el" Type="F" Min="0.00000000e+00" Max="5.95324745e+01"/>
    <Variable VarIndex="10" Expression="charge2LnL_mu/nHits" Label="chargeLikelihoodRatio_mu" Title="chargeLikelihoodRatio_mu" Unit="" Internal="chargeLikelihoodRatio_mu" Type="F" Min="6.21251345e+00" Max="5.87527008e+01"/>
  </Variables>
  <Spectators NSpec="0"/>
  <Classes NClass="2">
    <Class Name="Signal" Index="0"/>
    <Class Name="Background" Index="1"/>
  </Classes>
  <Transformations NTransformations="1">
    <Transform Name="Normalize">
      <Selection>
        <Input NInputs="11">
          <Input Type="Variable" Label="deltaCharge2LnL" Expression="deltaCharge2LnL"/>
          <Input Type="Variable" Label="deltaTime2LnL" Expression="deltaTime2LnL"/>
          <Input Type="Variable" Label="fracQOutsideRing_mu" Expression="fracQOutsideRing_mu"/>
          <Input Type="Variable" Label="fracPredQOutsideRing_mu" Expression="fracPredQOutsideRing_mu"/>
          <Input Type="Variable" Label="predictedChargeOverTotalCharge_mu" Expression="predictedChargeOverTotalCharge_mu"/>
          <Input Type="Variable" Label="predictedChargeOverTotalCharge_el" Expression="predictedChargeOverTotalCharge_el"/>
          <Input Type="Variable" Label="nHits" Expression="nHits"/>
          <Input Type="Variable" Label="recoE_el/totalQ" Expression="recoE_el/totalQ"/>
          <Input Type="Variable" Label="recoE_mu/totalQ" Expression="recoE_mu/totalQ"/>
          <Input Type="Variable" Label="chargeLikelihoodRatio_el" Expression="charge2LnL_el/nHits"/>
          <Input Type="Variable" Label="chargeLikelihoodRatio_mu" Expression="charge2LnL_mu/nHits"/>
        </Input>
        <Output NOutputs="11">
          <Output Type="Variable" Label="deltaCharge2LnL" Expression="deltaCharge2LnL"/>
          <Output Type="Variable" Label="deltaTime2LnL" Expression="deltaTime2LnL"/>
          <Output Type="Variable" Label="fracQOutsideRing_mu" Expression="fracQOutsideRing_mu"/>
          <Output Type="Variable" Label="fracPredQOutsideRing_mu" Expression="fracPredQOutsideRing_mu"/>
          <Output Type="Variable" Label="predictedChargeOverTotalCharge_mu" Expression="predictedChargeOverTotalCharge_mu"/>
          <Output Type="Variable" Label="predictedChargeOverTotalCharge_el" Expression="predictedChargeOverTotalCharge_el"/>
          <Output Type="Variable" Label="nHits" Expression="nHits"/>
          <Output Type="Variable" Label="recoE_el/totalQ" Expression="recoE_el/totalQ"/>
          <Output Type="Variable" Label="recoE_mu/totalQ" Expression="recoE_mu/totalQ"/>
          <Output Type="Variable" Label="chargeLikelihoodRatio_el" Expression="charge2LnL_el/nHits"/>
          <Output Type="Variable" Label="chargeLikelihoodRatio_mu" Expression="charge2LnL_mu/nHits"/>
        </Output>
      </Selection>
      <Class ClassIndex="0">
        <Ranges>
          <Range Index="0" Min="-1.6716931640625000e+04" Max="1.4072066650390625e+03"/>
          <Range Index="1" Min="-8.3582900390625000e+03" Max="7.7729931640625000e+03"/>
          <Range Index="2" Min="3.2582145184278488e-02" Max="1.0000000000000000e+00"/>
          <Range Index="3" Min="8.8703788816928864e-02" Max="9.7989922761917114e-01"/>
          <Range Index="4" Min="2.4427337944507599e-01" Max="1.4920219421386719e+01"/>
          <Range Index="5" Min="-9.9990002441406250e+02" Max="7.8182673454284668e+00"/>
          <Range Index="6" Min="8.3000000000000000e+01" Max="8.3010000000000000e+03"/>
          <Range Index="7" Min="1.1060649156570435e-01" Max="2.9662546157836914e+01"/>
          <Range Index="8" Min="1.0116215050220490e-01" Max="5.5666823387145996e+00"/>
          <Range Index="9" Min="0.0000000000000000e+00" Max="2.5274703979492188e+01"/>
          <Range Index="10" Min="6.2125134468078613e+00" Max="3.6618595123291016e+01"/>
        </Ranges>
      </Class>
      <Class ClassIndex="1">
        <Ranges>
          <Range Index="0" Min="-1.2000457031250000e+04" Max="1.9866694335937500e+03"/>
          <Range Index="1" Min="-1.0892250976562500e+04" Max="5.9175205078125000e+03"/>
          <Range Index="2" Min="0.0000000000000000e+00" Max="1.0000000000000000e+00"/>
          <Range Index="3" Min="8.0338880419731140e-02" Max="1.0000000000000000e+00"/>
          <Range Index="4" Min="2.8193795680999756e-01" Max="2.7687896728515625e+01"/>
          <Range Index="5" Min="-9.9990002441406250e+02" Max="2.1506490707397461e+01"/>
          <Range Index="6" Min="5.1000000000000000e+01" Max="7.3470000000000000e+03"/>
          <Range Index="7" Min="6.1038844287395477e-02" Max="1.4883046150207520e+01"/>
          <Range Index="8" Min="6.1038844287395477e-02" Max="1.0938178062438965e+01"/>
          <Range Index="9" Min="0.0000000000000000e+00" Max="5.9532474517822266e+01"/>
          <Range Index="10" Min="6.3137249946594238e+00" Max="5.8752700805664062e+01"/>
        </Ranges>
      </Class>
      <Class ClassIndex="2">
        <Ranges>
          <Range Index="0" Min="-1.6716931640625000e+04" Max="1.9866694335937500e+03"/>
          <Range Index="1" Min="-1.0892250976562500e+04" Max="7.7729931640625000e+03"/>
          <Range Index="2" Min="0.0000000000000000e+00" Max="1.0000000000000000e+00"/>
          <Range Index="3" Min="8.0338880419731140e-02" Max="1.0000000000000000e+00"/>
          <Range Index="4" Min="2.4427337944507599e-01" Max="2.7687896728515625e+01"/>
          <Range Index="5" Min="-9.9990002441406250e+02" Max="2.1506490707397461e+01"/>
          <Range Index="6" Min="5.1000000000000000e+01" Max="8.3010000000000000e+03"/>
          <Range Index="7" Min="6.1038844287395477e-02" Max="2.9662546157836914e+01"/>
          <Range Index="8" Min="6.1038844287395477e-02" Max="1.0938178062438965e+01"/>
          <Range Index="9" Min="0.0000000000000000e+00" Max="5.9532474517822266e+01"/>
          <Range Index="10" Min="6.2125134468078613e+00" Max="5.8752700805664062e+01"/>
        </Ranges>
      </Class>
    </Transform>
  </Transformations>
  <MVAPdfs/>
  <Weights>
    <Layout NLayers="3">
      <Layer Index="0" NNeurons="12">
        <Neuron NSynapses="16">
          3.9564239226016357e-01 2.1634569358868538e+00 6.1564472662838143e-01 2.0482447459276183e+00 -2.2614311927039301e+00 -1.7637024427680603e+00 -8.8464821508701452e-01 2.3176806662482590e+00 -1.3447211453717143e+00 -7.1950250300435459e-01 -1.7715296518222607e+00 1.5170696562639976e+00 -1.5445561097267293e+00 3.7544433652483294e-01 -6.8786746605641158e-01 7.1120191547917500e-01 
        </Neuron>
        <Neuron NSynapses="16">
          4.8662929658212289e-01 1.7148603089174437e+00 2.0856354017711570e-01 1.2736113423534985e+00 -7.9739586170214272e-01 -7.2920339778981025e-01 6.6971442538268577e-01 -5.2574164473284279e-01 -1.1768837868339939e+00 -1.6354411908737937e-01 1.4042302259018480e+00 -9.1535965275137599e-01 -1.6120610431189868e+00 -2.3971605817895612e-02 2.2388922548205112e-01 1.6237733967571408e+00 
        </Neuron>
        <Neuron NSynapses="16">
          3.9404438203833791e-01 -1.3590043269459651e-01 3.0794088006105358e-01 -1.0519271087642403e-01 -1.4170904595675391e+00 1.8627142085906825e+00 -8.0900499079993682e-01 -7.3203304696040458e-02 1.1179385123431766e+00 8.8512402513881394e-01 2.0680083840530221e+00 2.6492146572231934e+00 -1.5583995430688716e-01 -7.1319144092873021e-01 3.7992631122938647e-01 1.0900681034671129e-01 
        </Neuron>
        <Neuron NSynapses="16">
          2.8715332792522759e+00 1.7336289834980791e+00 1.4960047377698464e+00 1.9021593810665829e+00 -1.5092880127447066e+00 1.5134148049273322e+00 -1.7264775070847773e+00 -1.3202853587591625e+00 -1.3467382894947546e+00 -1.8139253566744988e+00 1.3617627559033774e+00 -5.0601245259703731e-01 -9.7158610978790683e-01 -1.6095264983349047e-01 -1.9359996182516717e+00 7.8062269833338804e-01 
        </Neuron>
        <Neuron NSynapses="16">
          1.2484081186338887e+00 -8.6483116601423327e-02 6.7335892827767796e-01 -1.6838328841313799e+00 5.7577797347763771e-01 -4.1536276677421896e-01 -7.0537109491131511e-01 -1.1666711581020353e+00 6.4869528523033948e-01 9.8275401823340958e-01 1.1088997037235453e+00 9.0809880917646646e-01 -1.0118034769822624e+00 -3.3894469009189119e+00 3.3915422402534362e-01 5.2049641468915286e-01 
        </Neuron>
        <Neuron NSynapses="16">
          2.4044548260542085e+00 2.7433861159451728e-01 3.4016127627095699e-01 -4.9053865293978893e-01 -1.5518065466787829e+00 -6.5106239275740629e-01 1.2296252247124377e+00 -1.0755288295839756e+00 -1.5014499191989257e+00 -1.5482482261940824e+00 -3.2419993760393334e-01 -8.6885448239618121e-02 3.9031971131188070e-01 -1.6928881008072814e+00 -5.0466395046764667e-01 1.7372167347003966e+00 
        </Neuron>
        <Neuron NSynapses="16">
          -4.9220303676398025e-01 -1.7825474154221101e+00 -1.4283361029176005e+00 -2.6173880697104412e-01 -1.2284535106552754e+00 -1.5385989224454257e+00 9.6376467124460152e-01 1.8243385047234018e+00 -1.2526308265821160e+00 1.6889170683272887e+00 -6.3095691297275747e-01 -2.4352735333761482e+00 1.8712994709417680e-01 7.4798127007540038e-01 -2.6050733289345493e+00 3.0521315210021682e-01 
        </Neuron>
        <Neuron NSynapses="16">
          1.1522548820992853e+00 2.7123635871977586e-01 -1.5647317062255546e+00 2.0019523765787248e+00 -2.2283404684982056e-01 -5.6074408424468458e-01 9.5131591639365298e-01 -1.2502736624119937e+00 -1.7322586929033816e+00 1.4256712717603368e-01 -3.0854201449949120e-01 -3.0957226014121775e-01 1.7844909185738220e+00 5.5464146568283246e-01 -6.0522431435445045e-01 2.0228245652231905e-01 
        </Neuron>
        <Neuron NSynapses="16">
          -6.4463990349671729e-01 7.9753284100015609e-01 -1.5713420472682874e-01 -1.1261560334441467e+00 3.9117768550326415e-01 -1.1722364978628883e+00 8.2854960457941482e-02 1.1464750612073482e+00 1.6964733821127704e+00 -1.9552343789380036e+00 4.8630501076816303e-02 -2.7684282273672400e-01 2.2267333069065272e+00 1.5314287733705203e+00 -1.0679972762843821e+00 -1.5525086877927244e-01 
        </Neuron>
        <Neuron NSynapses="16">
          -1.7294007925438060e+00 1.5577496586695190e+00 1.5810873212142817e+00 -9.0034025634510784e-01 -6.4579943289959341e-01 4.6373278471811208e-01 -1.4132715634534110e+00 5.6854917887088219e-01 1.6147722034353422e+00 -6.7387577862464021e-01 -7.7321756981588230e-01 1.8472462987192866e+00 1.4748627009088278e+00 -1.1240548180056025e+00 1.0212586832079686e+00 -1.3951151560759303e+00 
        </Neuron>
        <Neuron NSynapses="16">
          1.3978657102299199e+00 6.6558450702173300e-01 8.8104116187332426e-01 3.2009712506222687e-01 8.2910850210660714e-01 -1.7530519591636251e-01 -7.7961406710416670e-01 9.1018491469676210e-01 -1.0148743497497283e+00 -7.7081511777431655e-01 1.3748221826439788e+00 2.0063927632953185e+00 4.1326829313910468e-01 8.5680570046865145e-01 2.2131755398021347e+00 -1.8952478671046344e+00 
        </Neuron>
        <Neuron NSynapses="16">
          6.4173015428966507e-01 -6.9544941504068328e-02 2.8585757262325101e-01 -1.3668350124104562e+00 -1.6419088904698294e+00 7.5491718270699515e-01 1.6044870477679298e+00 -1.7716997763020799e+00 -4.1243184815346966e-02 -4.5327734717061979e-01 1.7231892419782902e-01 2.6834802041047223e+00 -1.6515263218969400e+00 -3.8546000638542666e-01 -1.0272321721902455e+00 1.0254398719995463e+00 
        </Neuron>
      </Layer>
      <Layer Index="1" NNeurons="17">
        <Neuron NSynapses="1">
          4.9474077196009353e-01 
        </Neuron>
        <Neuron NSynapses="1">
          -1.8326922170840451e-01 
        </Neuron>
        <Neuron NSynapses="1">
          -2.8819832735453582e-01 
        </Neuron>
        <Neuron NSynapses="1">
          5.1516801023094028e-01 
        </Neuron>
        <Neuron NSynapses="1">
          -1.0320736104618908e+00 
        </Neuron>
        <Neuron NSynapses="1">
          -6.1315514847917106e-02 
        </Neuron>
        <Neuron NSynapses="1">
          1.2691783684497046e-01 
        </Neuron>
        <Neuron NSynapses="1">
          -7.6988028881980097e-01 
        </Neuron>
        <Neuron NSynapses="1">
          -2.4632702753201133e-02 
        </Neuron>
        <Neuron NSynapses="1">
          6.1091345111475619e-02 
        </Neuron>
        <Neuron NSynapses="1">
          1.5825508818849851e-01 
        </Neuron>
        <Neuron NSynapses="1">
          -5.5192787848609604e-01 
        </Neuron>
        <Neuron NSynapses="1">
          9.3208111556233542e-01 
        </Neuron>
        <Neuron NSynapses="1">
          9.6019537265715971e-01 
        </Neuron>
        <Neuron NSynapses="1">
          6.2858263307508977e-01 
        </Neuron>
        <Neuron NSynapses="1">
          -5.3812806884441544e-01 
        </Neuron>
        <Neuron NSynapses="1">
          1.1645613041443803e+00 
        </Neuron>
      </Layer>
      <Layer Index="2" NNeurons="1">
        <Neuron NSynapses="0"/>
      </Layer>
    </Layout>
  </Weights>
</MethodSetup>
