<?xml version="1.0"?>
<MethodSetup Method="MLP::MLP">
  <GeneralInfo>
    <Info name="TMVA Release" value="4.2.0 [262656]"/>
    <Info name="ROOT Release" value="5.34/36 [336420]"/>
    <Info name="Creator" value="ajperch"/>
    <Info name="Date" value="Tue Jun 28 10:45:26 2016"/>
    <Info name="Host" value="Linux buildvm-19.phx2.fedoraproject.org 4.3.5-300.fc23.x86_64 #1 SMP Mon Feb 1 03:18:41 UTC 2016 x86_64 x86_64 x86_64 GNU/Linux"/>
    <Info name="Dir" value="/unix/fnu/ajperch/CHIPS/SpeedupFitter/WCSimAnalysis/tmva"/>
    <Info name="Training events" value="3469"/>
    <Info name="TrainingTime" value="3.72777441e+01"/>
    <Info name="AnalysisType" value="Classification"/>
  </GeneralInfo>
  <Options>
    <Option name="NCycles" modified="Yes">600</Option>
    <Option name="HiddenLayers" modified="Yes">N+5</Option>
    <Option name="NeuronType" modified="Yes">tanh</Option>
    <Option name="RandomSeed" modified="No">1</Option>
    <Option name="EstimatorType" modified="No">MSE</Option>
    <Option name="NeuronInputType" modified="No">sum</Option>
    <Option name="V" modified="Yes">False</Option>
    <Option name="VerbosityLevel" modified="No">Default</Option>
    <Option name="VarTransform" modified="Yes">N</Option>
    <Option name="H" modified="Yes">True</Option>
    <Option name="CreateMVAPdfs" modified="No">False</Option>
    <Option name="IgnoreNegWeightsInTraining" modified="No">False</Option>
    <Option name="TrainingMethod" modified="No">BP</Option>
    <Option name="LearningRate" modified="No">2.000000e-02</Option>
    <Option name="DecayRate" modified="No">1.000000e-02</Option>
    <Option name="TestRate" modified="Yes">5</Option>
    <Option name="EpochMonitoring" modified="No">False</Option>
    <Option name="Sampling" modified="No">1.000000e+00</Option>
    <Option name="SamplingEpoch" modified="No">1.000000e+00</Option>
    <Option name="SamplingImportance" modified="No">1.000000e+00</Option>
    <Option name="SamplingTraining" modified="No">True</Option>
    <Option name="SamplingTesting" modified="No">False</Option>
    <Option name="ResetStep" modified="No">50</Option>
    <Option name="Tau" modified="No">3.000000e+00</Option>
    <Option name="BPMode" modified="No">sequential</Option>
    <Option name="BatchSize" modified="No">-1</Option>
    <Option name="ConvergenceImprove" modified="No">1.000000e-30</Option>
    <Option name="ConvergenceTests" modified="No">-1</Option>
    <Option name="UseRegulator" modified="No">False</Option>
    <Option name="UpdateLimit" modified="No">10000</Option>
    <Option name="CalculateErrors" modified="No">False</Option>
    <Option name="WeightRange" modified="No">1.000000e+00</Option>
  </Options>
  <Variables NVar="11">
    <Variable VarIndex="0" Expression="deltaCharge2LnL" Label="deltaCharge2LnL" Title="deltaCharge2LnL" Unit="" Internal="deltaCharge2LnL" Type="F" Min="-1.90172090e+04" Max="1.42929570e+04"/>
    <Variable VarIndex="1" Expression="deltaTime2LnL" Label="deltaTime2LnL" Title="deltaTime2LnL" Unit="" Internal="deltaTime2LnL" Type="F" Min="-8.35829004e+03" Max="2.00508887e+04"/>
    <Variable VarIndex="2" Expression="fracQOutsideRing_mu" Label="fracQOutsideRing_mu" Title="fracQOutsideRing_mu" Unit="" Internal="fracQOutsideRing_mu" Type="F" Min="0.00000000e+00" Max="1.00000000e+00"/>
    <Variable VarIndex="3" Expression="fracPredQOutsideRing_mu" Label="fracPredQOutsideRing_mu" Title="fracPredQOutsideRing_mu" Unit="" Internal="fracPredQOutsideRing_mu" Type="F" Min="7.81822950e-02" Max="1.00000000e+00"/>
    <Variable VarIndex="4" Expression="predictedChargeOverTotalCharge_mu" Label="predictedChargeOverTotalCharge_mu" Title="predictedChargeOverTotalCharge_mu" Unit="" Internal="predictedChargeOverTotalCharge_mu" Type="F" Min="2.44273379e-01" Max="1.76130829e+01"/>
    <Variable VarIndex="5" Expression="predictedChargeOverTotalCharge_el" Label="predictedChargeOverTotalCharge_el" Title="predictedChargeOverTotalCharge_el" Unit="" Internal="predictedChargeOverTotalCharge_el" Type="F" Min="-9.99900024e+02" Max="1.96100044e+01"/>
    <Variable VarIndex="6" Expression="nHits" Label="nHits" Title="nHits" Unit="" Internal="nHits" Type="F" Min="6.40000000e+01" Max="8.30100000e+03"/>
    <Variable VarIndex="7" Expression="recoE_el/totalQ" Label="recoE_el/totalQ" Title="recoE_el/totalQ" Unit="" Internal="recoE_el_D_totalQ" Type="F" Min="7.71857798e-02" Max="2.96625462e+01"/>
    <Variable VarIndex="8" Expression="recoE_mu/totalQ" Label="recoE_mu/totalQ" Title="recoE_mu/totalQ" Unit="" Internal="recoE_mu_D_totalQ" Type="F" Min="9.03712288e-02" Max="7.82976580e+00"/>
    <Variable VarIndex="9" Expression="charge2LnL_el/nHits" Label="chargeLikelihoodRatio_el" Title="chargeLikelihoodRatio_el" Unit="" Internal="chargeLikelihoodRatio_el" Type="F" Min="0.00000000e+00" Max="4.62674370e+01"/>
    <Variable VarIndex="10" Expression="charge2LnL_mu/nHits" Label="chargeLikelihoodRatio_mu" Title="chargeLikelihoodRatio_mu" Unit="" Internal="chargeLikelihoodRatio_mu" Type="F" Min="5.23294067e+00" Max="4.82155037e+01"/>
  </Variables>
  <Spectators NSpec="0"/>
  <Classes NClass="2">
    <Class Name="Signal" Index="0"/>
    <Class Name="Background" Index="1"/>
  </Classes>
  <Transformations NTransformations="1">
    <Transform Name="Normalize">
      <Selection>
        <Input NInputs="11">
          <Input Type="Variable" Label="deltaCharge2LnL" Expression="deltaCharge2LnL"/>
          <Input Type="Variable" Label="deltaTime2LnL" Expression="deltaTime2LnL"/>
          <Input Type="Variable" Label="fracQOutsideRing_mu" Expression="fracQOutsideRing_mu"/>
          <Input Type="Variable" Label="fracPredQOutsideRing_mu" Expression="fracPredQOutsideRing_mu"/>
          <Input Type="Variable" Label="predictedChargeOverTotalCharge_mu" Expression="predictedChargeOverTotalCharge_mu"/>
          <Input Type="Variable" Label="predictedChargeOverTotalCharge_el" Expression="predictedChargeOverTotalCharge_el"/>
          <Input Type="Variable" Label="nHits" Expression="nHits"/>
          <Input Type="Variable" Label="recoE_el/totalQ" Expression="recoE_el/totalQ"/>
          <Input Type="Variable" Label="recoE_mu/totalQ" Expression="recoE_mu/totalQ"/>
          <Input Type="Variable" Label="chargeLikelihoodRatio_el" Expression="charge2LnL_el/nHits"/>
          <Input Type="Variable" Label="chargeLikelihoodRatio_mu" Expression="charge2LnL_mu/nHits"/>
        </Input>
        <Output NOutputs="11">
          <Output Type="Variable" Label="deltaCharge2LnL" Expression="deltaCharge2LnL"/>
          <Output Type="Variable" Label="deltaTime2LnL" Expression="deltaTime2LnL"/>
          <Output Type="Variable" Label="fracQOutsideRing_mu" Expression="fracQOutsideRing_mu"/>
          <Output Type="Variable" Label="fracPredQOutsideRing_mu" Expression="fracPredQOutsideRing_mu"/>
          <Output Type="Variable" Label="predictedChargeOverTotalCharge_mu" Expression="predictedChargeOverTotalCharge_mu"/>
          <Output Type="Variable" Label="predictedChargeOverTotalCharge_el" Expression="predictedChargeOverTotalCharge_el"/>
          <Output Type="Variable" Label="nHits" Expression="nHits"/>
          <Output Type="Variable" Label="recoE_el/totalQ" Expression="recoE_el/totalQ"/>
          <Output Type="Variable" Label="recoE_mu/totalQ" Expression="recoE_mu/totalQ"/>
          <Output Type="Variable" Label="chargeLikelihoodRatio_el" Expression="charge2LnL_el/nHits"/>
          <Output Type="Variable" Label="chargeLikelihoodRatio_mu" Expression="charge2LnL_mu/nHits"/>
        </Output>
      </Selection>
      <Class ClassIndex="0">
        <Ranges>
          <Range Index="0" Min="-1.6716931640625000e+04" Max="1.4072066650390625e+03"/>
          <Range Index="1" Min="-8.3582900390625000e+03" Max="7.7729931640625000e+03"/>
          <Range Index="2" Min="3.2582145184278488e-02" Max="1.0000000000000000e+00"/>
          <Range Index="3" Min="8.8703788816928864e-02" Max="9.7989922761917114e-01"/>
          <Range Index="4" Min="2.4427337944507599e-01" Max="1.4920219421386719e+01"/>
          <Range Index="5" Min="-9.9990002441406250e+02" Max="7.8182673454284668e+00"/>
          <Range Index="6" Min="8.3000000000000000e+01" Max="8.3010000000000000e+03"/>
          <Range Index="7" Min="1.1060649156570435e-01" Max="2.9662546157836914e+01"/>
          <Range Index="8" Min="1.0116215050220490e-01" Max="5.5666823387145996e+00"/>
          <Range Index="9" Min="0.0000000000000000e+00" Max="2.5274703979492188e+01"/>
          <Range Index="10" Min="6.2125134468078613e+00" Max="3.6618595123291016e+01"/>
        </Ranges>
      </Class>
      <Class ClassIndex="1">
        <Ranges>
          <Range Index="0" Min="-1.9017208984375000e+04" Max="1.4292957031250000e+04"/>
          <Range Index="1" Min="-5.8197832031250000e+03" Max="2.0050888671875000e+04"/>
          <Range Index="2" Min="0.0000000000000000e+00" Max="1.0000000000000000e+00"/>
          <Range Index="3" Min="7.8182294964790344e-02" Max="1.0000000000000000e+00"/>
          <Range Index="4" Min="2.6649159193038940e-01" Max="1.7613082885742188e+01"/>
          <Range Index="5" Min="-9.9990002441406250e+02" Max="1.9610004425048828e+01"/>
          <Range Index="6" Min="6.4000000000000000e+01" Max="6.1140000000000000e+03"/>
          <Range Index="7" Min="7.7185779809951782e-02" Max="1.0955102920532227e+01"/>
          <Range Index="8" Min="9.0371228754520416e-02" Max="7.8297657966613770e+00"/>
          <Range Index="9" Min="0.0000000000000000e+00" Max="4.6267436981201172e+01"/>
          <Range Index="10" Min="5.2329406738281250e+00" Max="4.8215503692626953e+01"/>
        </Ranges>
      </Class>
      <Class ClassIndex="2">
        <Ranges>
          <Range Index="0" Min="-1.9017208984375000e+04" Max="1.4292957031250000e+04"/>
          <Range Index="1" Min="-8.3582900390625000e+03" Max="2.0050888671875000e+04"/>
          <Range Index="2" Min="0.0000000000000000e+00" Max="1.0000000000000000e+00"/>
          <Range Index="3" Min="7.8182294964790344e-02" Max="1.0000000000000000e+00"/>
          <Range Index="4" Min="2.4427337944507599e-01" Max="1.7613082885742188e+01"/>
          <Range Index="5" Min="-9.9990002441406250e+02" Max="1.9610004425048828e+01"/>
          <Range Index="6" Min="6.4000000000000000e+01" Max="8.3010000000000000e+03"/>
          <Range Index="7" Min="7.7185779809951782e-02" Max="2.9662546157836914e+01"/>
          <Range Index="8" Min="9.0371228754520416e-02" Max="7.8297657966613770e+00"/>
          <Range Index="9" Min="0.0000000000000000e+00" Max="4.6267436981201172e+01"/>
          <Range Index="10" Min="5.2329406738281250e+00" Max="4.8215503692626953e+01"/>
        </Ranges>
      </Class>
    </Transform>
  </Transformations>
  <MVAPdfs/>
  <Weights>
    <Layout NLayers="3">
      <Layer Index="0" NNeurons="12">
        <Neuron NSynapses="16">
          -2.6032658695862865e-01 2.0025663379750953e+00 1.6795540260098345e+00 2.0922326345894917e+00 -1.9101592063311046e+00 -8.7504589394569674e+00 -7.8691128940684885e-01 1.9259897336403853e+00 -1.5185175660288996e+00 -1.6739463014435780e+00 -1.5385594320207645e+00 -3.5115773602839973e-01 -1.4133846704422834e+00 -5.2108850949856156e-01 -6.1378761819306438e-01 5.7852974304138860e-01 
        </Neuron>
        <Neuron NSynapses="16">
          5.4714325149459300e-02 2.0637774061400482e+00 -6.8934121060879400e-02 1.3545025631781435e+00 -9.9320248694944366e-02 -6.9831471442923898e-01 7.3701636170312534e-01 7.9709907158115781e-02 -1.0935486676356636e+00 8.5814744133639681e-02 1.4754204648033640e+00 -8.9545374513847265e-01 -1.3323633433383502e+00 4.0258081465942469e-01 6.7330696486290487e-01 1.5657883740892158e+00 
        </Neuron>
        <Neuron NSynapses="16">
          -8.7177499857158458e-01 -2.8202143394526324e-01 8.6699660852359395e-01 -4.5887989374336885e-01 -1.5815079237942864e+00 4.2649531384610482e+00 -1.2142849241793960e+00 1.0744021665148835e+00 1.0704044213433683e+00 7.3594382498627015e-02 1.9841183983116089e+00 4.5191821684385353e-01 -8.2400485638077114e-01 -9.3524391984168853e-01 8.7808908870256319e-01 -2.4875103199904761e-01 
        </Neuron>
        <Neuron NSynapses="16">
          1.4081345165089583e+00 1.2505636963614504e+00 1.7310082696742506e+00 4.9013761010896773e-02 -1.6634607933360519e+00 -6.1183304824587892e-01 -1.8294980289923704e+00 -8.7404757766496888e-01 -1.2963638203803969e+00 -1.6423050495163714e+00 1.4525128517244121e+00 7.8521691282102124e-01 -2.0947623902210402e+00 4.5239556282201193e-01 -3.7218731037957836e-01 6.2184769317815192e-01 
        </Neuron>
        <Neuron NSynapses="16">
          2.4477537887401222e+00 3.7231704543215566e-01 3.9435594723016310e-01 -1.3628342663478636e+00 8.2915275683210743e-01 -6.1839503442168198e-01 -7.2905692826135127e-01 -1.3453054068563703e+00 8.7674898183985972e-01 8.7402835827862513e-01 1.1641561938290788e+00 4.0017728701389726e-01 -2.2407508175918749e+00 -1.4955114289536406e+00 9.6053101639256233e-01 4.1174743000122621e-01 
        </Neuron>
        <Neuron NSynapses="16">
          1.2018818597401033e+00 1.2590539139056262e-01 7.3688135517791731e-01 -3.0724100541235588e-01 -1.7410666951806824e+00 3.3633329263350625e-01 1.1734271378688339e+00 -1.1937801183022878e+00 -1.6968793847254517e+00 -1.5908348566685597e+00 -5.9546949336907340e-01 2.5202173025710384e-01 1.5186887163885385e+00 -2.2640376881811064e+00 -8.6933877842858287e-01 1.6686520874919342e+00 
        </Neuron>
        <Neuron NSynapses="16">
          -4.3325814988065020e-01 -1.0582112983563907e+00 -4.3803890058641720e-01 6.2166702301687471e-01 -1.2807141642636157e+00 -1.0635135459223286e+00 7.0993107969311831e-01 1.7172641830611657e+00 -8.3981200490797503e-01 7.8557880195905083e-01 -8.9680966599744205e-01 -4.8878956697531284e-01 -5.9365326317797118e-01 3.1332929493126077e-01 -1.7414921098393159e+00 2.6960380535208417e-01 
        </Neuron>
        <Neuron NSynapses="16">
          1.3502009278396574e+00 1.0073140888431573e+00 -1.0567916040531455e+00 1.6248753860016891e+00 3.5368741691951777e-01 -1.3436070905359172e+00 7.9254445159277354e-01 -9.8577211995766856e-01 -1.5648697976431190e+00 -3.4524197382870145e-02 -1.0075379916433998e-01 1.8234713376269298e+00 9.1621125260050751e-01 6.9846895169356460e-01 -3.1016018101298976e-01 -1.5810284579488736e-03 
        </Neuron>
        <Neuron NSynapses="16">
          -6.8007639084364080e-01 1.4891738592194850e+00 -3.6789704363492726e-01 -1.8816915529661815e+00 5.3653230070969327e-01 -8.9277344553131310e-01 7.6751973757864494e-02 1.2849813692463652e+00 1.8150168944628324e+00 -2.0247422320022785e+00 3.6737950989941731e-01 1.9943067061503637e+00 1.4535733484110500e+00 6.9205356911044724e-01 -1.4535646613593867e+00 -2.8807969057333044e-01 
        </Neuron>
        <Neuron NSynapses="16">
          -1.8896234520669128e+00 1.4094860147341681e+00 1.4898251151371886e+00 -1.0951461440761912e+00 2.6659117679880733e-03 -1.2936366852569174e+00 -1.3296621555395165e+00 6.5881766929651275e-01 1.6744377612205952e+00 -5.8269782352135613e-01 -4.9450578217519642e-01 9.1289934015324725e-01 1.0548038871086229e+00 2.1032735751998680e-01 9.0587048677446580e-01 -1.4403758832233919e+00 
        </Neuron>
        <Neuron NSynapses="16">
          1.1018771973809145e+00 7.7927731104736842e-01 -1.8787528858444189e-02 3.8907914992081898e-02 1.2253912206552413e+00 2.4094972609138399e+00 -6.0222106194724401e-01 1.1176894338518442e+00 -1.0059815177239910e+00 -2.7544422707477789e-01 1.8060543742623270e+00 1.3993921760724055e+00 8.0336357994148885e-02 1.6413756131132222e+00 1.8660167649521102e+00 -1.9758492698445640e+00 
        </Neuron>
        <Neuron NSynapses="16">
          -1.8806048412695764e-01 -4.0864572041373731e-01 1.9176082238093214e-01 -1.4160286407192066e+00 -2.2002297261027923e+00 1.1761622648045746e+00 1.8090695569002933e+00 -1.8301839328222038e+00 -3.2542229036110454e-01 -3.4414279297537453e-01 1.2899792563334631e-01 1.4714403980206552e+00 -3.0107216874968645e-01 -7.8288262865975644e-01 -1.0816752583346185e+00 1.1573037090013918e+00 
        </Neuron>
      </Layer>
      <Layer Index="1" NNeurons="17">
        <Neuron NSynapses="1">
          7.0685399522694314e-01 
        </Neuron>
        <Neuron NSynapses="1">
          1.0485699079070312e+00 
        </Neuron>
        <Neuron NSynapses="1">
          -4.5624492870917988e-01 
        </Neuron>
        <Neuron NSynapses="1">
          3.1684005884420618e-01 
        </Neuron>
        <Neuron NSynapses="1">
          -1.0641480799355842e+00 
        </Neuron>
        <Neuron NSynapses="1">
          7.1044053733099388e-01 
        </Neuron>
        <Neuron NSynapses="1">
          1.1930132749229284e-01 
        </Neuron>
        <Neuron NSynapses="1">
          -3.0998589849127883e-01 
        </Neuron>
        <Neuron NSynapses="1">
          9.9401018724829798e-03 
        </Neuron>
        <Neuron NSynapses="1">
          -3.6846793151897100e-01 
        </Neuron>
        <Neuron NSynapses="1">
          2.9514243834364834e-01 
        </Neuron>
        <Neuron NSynapses="1">
          -1.0819973097245739e+00 
        </Neuron>
        <Neuron NSynapses="1">
          5.0507105126820906e-01 
        </Neuron>
        <Neuron NSynapses="1">
          1.0186087646999935e+00 
        </Neuron>
        <Neuron NSynapses="1">
          1.2455087059639973e-01 
        </Neuron>
        <Neuron NSynapses="1">
          -2.0146150868750545e-01 
        </Neuron>
        <Neuron NSynapses="1">
          6.4405387673669801e-01 
        </Neuron>
      </Layer>
      <Layer Index="2" NNeurons="1">
        <Neuron NSynapses="0"/>
      </Layer>
    </Layout>
  </Weights>
</MethodSetup>
